  -0.4918  -0.5403   0.5586  -0.6426  -0.5749  -0.3747  -1.0173  -0.9189   0.1762   0.7579  -0.1319  -0.5196  -0.6455  -0.7805  -0.1694  -0.3850  -0.1975
   0.7635  -0.0703   0.8640  -0.9898  -0.3261   0.8420  -0.3151  -0.4248  -0.0031   1.0236   1.0095  -0.2573   1.0078   0.5837   0.6058  -0.3762   0.0272
   0.3927   0.8811  -1.2108   0.9069   0.5970  -1.5609   0.1197  -0.2384  -0.3288  -0.1468  -0.6329   0.7084  -0.1004   0.1250   0.2042   0.1023  -0.5252
   0.2269  -0.6529  -0.1424  -1.2268  -0.2773  -0.6504   0.7173  -0.7449   0.0603  -0.7917   0.0653   0.5313  -0.3656   0.5819   0.8216   0.9379  -0.3515
   1.3424   0.1477  -0.5328  -0.7174   0.4840   1.3099   0.2755   0.0082  -0.2229  -0.4093  -0.1435   0.0687   0.1605   0.1121  -0.3791  -0.4528  -0.5590
  -0.0119   0.3120  -0.6712   0.8244  -0.4724  -0.3403  -0.0453  -0.8934   0.6093   0.8028  -0.1521   0.8109   0.5618   0.8376  -0.0506  -0.5552  -0.1837
   0.6580   0.5136  -1.0777  -0.0157   0.1855   1.4341  -0.4513   0.0697  -0.6961  -0.7174  -0.0678   0.6916   0.5062   0.4007   0.3644   1.0318   0.8886
   1.0460  -1.1191  -0.4377   1.4368  -0.0111  -0.1202  -0.6690  -0.2109   0.1067   0.2036   0.0554  -0.2351  -0.5941  -0.2250  -0.8593   0.7447   0.5293
   0.1011  -0.8043   1.1076   0.9116  -0.0002  -0.5489  -0.6865   0.3351   0.7422  -0.6742   0.8696   0.2690  -0.4318  -0.4093   0.3165   0.3032  -0.0607
  -0.2023  -0.5673   0.5271   0.1215  -0.1904   1.1000   0.2325   0.3077  -0.6271   0.2916  -0.2085   0.8075   0.1372  -0.4180   0.6497  -0.5839  -0.0529
   0.1860  -0.4169   0.7990  -0.8842  -0.4012  -0.5141   0.1444  -0.5559   0.9526  -0.2766   0.4135  -0.8767   0.0956  -0.4819   0.3543   0.6968   0.3939
   0.8523  -1.4482   1.2170   0.6434  -1.9148   0.0554   0.4478   0.3174   0.2963   0.1438   0.1545   1.7020  -1.0025  -0.7063  -0.7728   0.1993   0.0717
   0.9213  -0.2547   0.1158   0.6850  -0.1720  -0.7091   1.1745   1.0498   0.5083   0.2266   0.8791  -0.0570  -0.0433  -0.7473   0.8477   0.2548   0.7312
  -0.1088   0.1953   1.0157  -0.0550   0.4048  -0.7080   0.4592   0.0965   0.9727  -0.2018  -0.2149   0.4247   0.1934  -0.0897  -0.7042  -0.7760   0.2262
   1.2435  -0.4158  -1.1168   1.7156  -1.0295  -0.1685   0.1907   0.3787   0.1831   0.3263   0.4024  -0.9455   0.5614   0.8622   0.4660  -0.0193  -0.0999
  -0.0131  -0.0307   1.9805  -0.7326   1.1518   0.1689   1.0726  -1.4786   0.5440  -0.6362  -0.5503   3.6685   0.5604   0.5247  -2.3640

