  -0.4959  -0.5391   0.5717  -0.6502  -0.5845  -0.3473  -1.0060  -0.9200   0.1838   0.7599  -0.1313  -0.5098  -0.6530  -0.7792  -0.1629  -0.3806  -0.1917
   0.7717  -0.0764   0.8490  -0.9863  -0.3369   0.8365  -0.3296  -0.4231  -0.0145   1.0222   1.0094  -0.2834   1.0099   0.5891   0.6117  -0.3824   0.0207
   0.1381   0.8623  -0.9464   0.5960   0.5703  -1.2324   0.3652  -0.4929  -0.5587   0.1236  -0.6823   0.5759  -0.2911   0.3149   0.3285   0.1425  -0.5744
   0.2134  -0.6375  -0.1217  -1.1721  -0.2794  -0.6804   0.7081  -0.7132   0.0490  -0.8513   0.1587   0.6107  -0.3344   0.5723   0.7432   0.9788  -0.3698
   1.1001   0.1200  -0.3236  -0.6555   0.4835   1.1879   0.2700  -0.0471  -0.2072  -0.5732  -0.0558  -0.0054   0.2386   0.2311  -0.5629  -0.5080  -0.5645
  -0.0407   0.3333  -0.6643   0.8297  -0.4856  -0.3329  -0.0565  -0.8828   0.6112   0.7973  -0.1489   0.8028   0.5729   0.8382  -0.0547  -0.5694  -0.1701
   0.5514   0.4360  -0.9682   0.1089   0.1992   1.2210  -0.6261   0.1696  -0.7485  -0.8465   0.0389   0.6438   0.6134   0.3780   0.2531   1.0176   0.8280
   0.9217  -1.0383  -0.4016   1.2266   0.0867  -0.0152  -0.5642  -0.3231   0.0392   0.2979   0.0212  -0.2394  -0.6452  -0.1816  -0.8547   0.6588   0.6078
   0.0852  -0.7942   1.1048   0.9308  -0.0150  -0.5618  -0.6794   0.3194   0.8008  -0.6573   0.7856   0.2233  -0.4362  -0.3620   0.3107   0.2636  -0.0296
  -0.0854  -0.5166   0.3973   0.2314  -0.1534   0.9909   0.2420   0.3361  -0.6358   0.3163  -0.1866   0.8233   0.2122  -0.5213   0.7001  -0.5638  -0.0352
   0.1979  -0.3755   0.7002  -0.8610  -0.4446  -0.5394   0.1396  -0.5967   0.9836  -0.2764   0.3367  -0.8599   0.0408  -0.4649   0.3299   0.6855   0.3597
   0.7743  -1.1293   1.0031   0.3937  -1.6197   0.0371   0.4327   0.3595   0.3132   0.1318   0.1767   1.6373  -1.0245  -0.6259  -0.7394   0.2777   0.0204
   0.9269  -0.2269   0.0812   0.6971  -0.2208  -0.6736   1.1592   1.0639   0.5010   0.2308   0.8810  -0.0843  -0.0491  -0.7143   0.8467   0.2748   0.7100
  -0.1296   0.2700   0.9326  -0.1122   0.3902  -0.6653   0.4905   0.0362   1.0093  -0.2319  -0.2506   0.3581   0.1361  -0.0100  -0.6891  -0.8156   0.2367
   1.1081  -0.5198  -0.8401   1.4534  -0.8768  -0.0217   0.0759   0.5309   0.0729   0.3903   0.4859  -0.6412   0.3665   0.8941   0.3621   0.0757  -0.1575
  -0.1366   0.0306   1.2219  -0.7466   0.7853   0.1990   0.7569  -1.1239   0.4830  -0.4520  -0.3775   2.8327   0.6449   0.5475  -1.6047

