  -0.4948  -0.5393   0.5672  -0.6468  -0.5803  -0.3584  -1.0108  -0.9187   0.1826   0.7578  -0.1315  -0.5122  -0.6501  -0.7801  -0.1661  -0.3816  -0.1943
   0.7714  -0.0753   0.8518  -0.9875  -0.3330   0.8375  -0.3264  -0.4227  -0.0116   1.0228   1.0096  -0.2778   1.0101   0.5876   0.6111  -0.3803   0.0223
   0.2609   0.8569  -1.0700   0.7434   0.5937  -1.4093   0.2218  -0.3557  -0.4565  -0.0101  -0.6570   0.6284  -0.1865   0.2238   0.2563   0.1389  -0.5769
   0.2213  -0.6448  -0.1315  -1.2060  -0.2796  -0.6555   0.7182  -0.7324   0.0562  -0.8153   0.1064   0.5660  -0.3543   0.5813   0.7896   0.9576  -0.3577
   1.2346   0.1376  -0.4378  -0.6907   0.4900   1.2544   0.2605   0.0003  -0.2125  -0.4871  -0.0988   0.0201   0.2084   0.1726  -0.4618  -0.4656  -0.5690
  -0.0366   0.3308  -0.6728   0.8297  -0.4772  -0.3483  -0.0627  -0.8836   0.6042   0.8063  -0.1580   0.8130   0.5652   0.8320  -0.0580  -0.5558  -0.1907
   0.6049   0.4758  -1.0207   0.0494   0.2006   1.3200  -0.5465   0.1308  -0.7214  -0.7855  -0.0084   0.6643   0.5657   0.3902   0.3089   1.0287   0.8578
   0.9905  -1.0761  -0.4258   1.3406   0.0380  -0.0737  -0.6120  -0.2685   0.0806   0.2436   0.0409  -0.2517  -0.6098  -0.1954  -0.8573   0.7126   0.5608
   0.0928  -0.7920   1.1093   0.9280  -0.0016  -0.5582  -0.6827   0.3369   0.7729  -0.6651   0.8356   0.2466  -0.4283  -0.3826   0.3143   0.2911  -0.0429
  -0.1443  -0.5413   0.4589   0.1773  -0.1764   1.0458   0.2409   0.3151  -0.6382   0.3084  -0.1985   0.8153   0.1686  -0.4677   0.6759  -0.5775  -0.0436
   0.1900  -0.3905   0.7416  -0.8730  -0.4257  -0.5279   0.1434  -0.5820   0.9659  -0.2764   0.3729  -0.8696   0.0620  -0.4687   0.3406   0.6887   0.3750
   0.8396  -1.2948   1.0855   0.5167  -1.7700   0.0465   0.4467   0.3276   0.3209   0.1306   0.1523   1.6624  -1.0103  -0.6666  -0.7559   0.2203   0.0598
   0.9241  -0.2469   0.0976   0.6912  -0.1983  -0.6964   1.1612   1.0557   0.5014   0.2245   0.8806  -0.0781  -0.0455  -0.7310   0.8473   0.2578   0.7207
  -0.1174   0.2319   0.9722  -0.0861   0.4003  -0.6877   0.4781   0.0623   0.9928  -0.2194  -0.2329   0.3870   0.1674  -0.0520  -0.6936  -0.7994   0.2343
   1.1843  -0.4753  -0.9739   1.5854  -0.9440  -0.0996   0.1312   0.4625   0.1331   0.3423   0.4606  -0.7608   0.4714   0.8759   0.3818   0.0481  -0.1430
  -0.0763  -0.0026   1.5613  -0.7559   0.9856   0.2182   0.9085  -1.2984   0.5359  -0.5449  -0.4552   3.2348   0.6153   0.5503  -1.9478

