  -0.4570  -0.5526   0.4634  -0.5984  -0.4753  -0.5913  -1.0707  -0.9383   0.0827   0.7912  -0.1444  -0.6095  -0.6016  -0.7796  -0.1973  -0.4366  -0.2187
   0.6396   0.0818   1.0041  -0.9375  -0.2708   0.9027  -0.1347  -0.4369   0.1478   1.0516   0.9988   0.0032   1.0054   0.5651   0.5347  -0.3033   0.1226
   0.5922   0.9973  -1.6082   1.3342   0.3471  -1.8200   0.0082  -0.2086  -0.0895  -0.4106  -0.6900   0.8530  -0.1660   0.1349   0.0335   0.0460  -0.5506
   0.1347  -0.5808  -0.1642  -1.2924  -0.2577  -0.6464   0.6053  -0.6748  -0.0177  -0.8606   0.1702   0.6987  -0.3373   0.5084   0.6575   1.0297  -0.4852
   1.1244   0.0261  -0.2341  -0.7572   0.4250   1.3680   0.3949  -0.1521  -0.0203  -0.7684  -0.0277   0.4948   0.0426   0.0517  -0.6677  -0.5193  -0.5333
   0.2455   0.1797  -0.5957   0.7795  -0.3738  -0.1933   0.1910  -0.9290   0.7642   0.7492  -0.0528   0.7291   0.5070   1.0304   0.0939  -0.7160   0.1776
   0.5755   0.2524  -0.8714   0.1046   0.1901   1.1718  -0.6232   0.1041  -0.7058  -0.9466   0.0336   0.8272   0.5931   0.2167   0.1885   1.0346   0.7484
   1.0116  -1.2755   0.1231   1.7211  -0.4747   0.4291  -0.4069  -0.1030   0.2754   0.2998   0.1606   0.1353  -0.7037  -0.2443  -0.7309   0.9008   0.7432
  -0.3955  -0.8546   1.1849   0.5200   0.0469  -0.6739  -0.8730   0.0520   0.6700  -0.6358   0.4338   0.2102  -0.5232  -0.5317   0.1194  -0.1112  -0.1159
  -0.4706  -0.4386   0.5365  -0.1662  -0.1393   1.2063   0.1243   0.2856  -0.6793   0.2698  -0.2648   0.8223   0.2051  -0.6069   0.6257  -0.6378  -0.1293
   0.1197  -0.7971   1.0497  -1.0388   0.0655  -1.0219  -0.0867  -0.5206   0.9739  -0.2350   0.1549  -0.7326   0.1731  -0.6879   0.1429   0.6089   0.2861
   0.9344  -1.5747   1.3201   0.5831  -2.0262   0.2859   0.4908   0.3332   0.4233   0.0878   0.1423   2.4831  -1.2668  -1.0113  -0.9258   0.3057   0.0241
   0.8945  -0.0077   0.2082   0.6841  -0.0461  -0.5214   1.3731   1.1639   0.6683   0.3884   0.8700   0.2359  -0.0316  -0.7457   0.8543   0.4650   0.8337
   0.0241   0.1537   1.2767   0.7320   0.1480  -0.8858   0.3284   0.5797   1.0220   0.0107  -0.1244   0.7165   0.0797   0.0555  -0.6751  -0.5396   0.3422
   1.4337  -0.2531  -1.5010   2.0046  -1.2995  -0.2189   0.1511   0.3870   0.2256   0.3283   0.3264  -1.1694   0.7479   0.9104   0.4238  -0.0858  -0.0647
  -0.3649   0.0810   2.5474  -0.8944   0.8252  -0.4871   0.5042  -2.0572  -0.1494  -0.4690  -1.0797   4.3910   0.6862   1.0545  -2.9703

