  -4.9490e-01  -5.3919e-01   5.6774e-01  -6.4642e-01  -5.7941e-01  -3.5930e-01  -1.0106e+00  -9.1853e-01   1.8304e-01   7.5787e-01  -1.3161e-01  -5.1208e-01  -6.4986e-01  -7.8016e-01  -1.6598e-01  -3.8159e-01  -1.9387e-01
   7.6902e-01  -7.6815e-02   8.5143e-01  -9.8631e-01  -3.3840e-01   8.3731e-01  -3.2831e-01  -4.2508e-01  -1.4537e-02   1.0218e+00   1.0092e+00  -2.8084e-01   1.0089e+00   5.8848e-01   6.1002e-01  -3.8369e-01   2.1243e-02
   2.6346e-01   8.5545e-01  -1.0709e+00   7.4313e-01   5.9453e-01  -1.4097e+00   2.2157e-01  -3.5519e-01  -4.5564e-01  -1.0748e-02  -6.5697e-01   6.2826e-01  -1.8519e-01   2.2335e-01   2.5589e-01   1.3851e-01  -5.7628e-01
   2.1931e-01  -6.4426e-01  -1.3003e-01  -1.2051e+00  -2.7930e-01  -6.5664e-01   7.1793e-01  -7.3209e-01   5.6125e-02  -8.1604e-01   1.0723e-01   5.6632e-01  -3.5444e-01   5.8181e-01   7.8894e-01   9.5727e-01  -3.5740e-01
   1.2375e+00   1.3567e-01  -4.3942e-01  -6.8868e-01   4.8907e-01   1.2526e+00   2.6021e-01  -9.9157e-05  -2.1453e-01  -4.8615e-01  -9.8424e-02   1.6459e-02   2.0919e-01   1.7413e-01  -4.6116e-01  -4.6575e-01  -5.6958e-01
  -3.3984e-02   3.2890e-01  -6.7354e-01   8.2964e-01  -4.7704e-01  -3.4840e-01  -6.2318e-02  -8.8388e-01   6.0420e-01   8.0609e-01  -1.5774e-01   8.1226e-01   5.6567e-01   8.3227e-01  -5.7948e-02  -5.5594e-01  -1.9053e-01
   6.0712e-01   4.7245e-01  -1.0214e+00   5.0966e-02   2.0156e-01   1.3156e+00  -5.4819e-01   1.3072e-01  -7.2241e-01  -7.8686e-01  -7.8240e-03   6.6143e-01   5.6781e-01   3.8959e-01   3.0841e-01   1.0277e+00   8.5692e-01
   9.9487e-01  -1.0800e+00  -4.2711e-01   1.3446e+00   3.8412e-02  -7.8899e-02  -6.1295e-01  -2.6838e-01   8.1588e-02   2.4183e-01   4.0886e-02  -2.5650e-01  -6.0808e-01  -1.9555e-01  -8.5486e-01   7.1333e-01   5.5920e-01
   9.4384e-02  -7.9158e-01   1.1080e+00   9.2809e-01  -1.3279e-04  -5.5896e-01  -6.8237e-01   3.3738e-01   7.7391e-01  -6.6561e-01   8.3579e-01   2.4640e-01  -4.2749e-01  -3.8215e-01   3.1403e-01   2.9154e-01  -4.2580e-02
  -1.4398e-01  -5.3986e-01   4.5806e-01   1.7829e-01  -1.7576e-01   1.0452e+00   2.4074e-01   3.1614e-01  -6.3793e-01   3.0861e-01  -1.9806e-01   8.1560e-01   1.6894e-01  -4.6789e-01   6.7648e-01  -5.7695e-01  -4.3214e-02
   1.9241e-01  -3.9376e-01   7.4277e-01  -8.7494e-01  -4.2389e-01  -5.2729e-01   1.4352e-01  -5.8173e-01   9.6247e-01  -2.7464e-01   3.7498e-01  -8.7073e-01   6.2675e-02  -4.6914e-01   3.4186e-01   6.8861e-01   3.7547e-01
   8.4079e-01  -1.2954e+00   1.0849e+00   5.1751e-01  -1.7710e+00   4.6826e-02   4.4709e-01   3.2733e-01   3.2113e-01   1.3010e-01   1.5264e-01   1.6610e+00  -1.0096e+00  -6.6658e-01  -7.5518e-01   2.2019e-01   6.0087e-02
   9.2432e-01  -2.4876e-01   9.7738e-02   6.9113e-01  -1.9812e-01  -6.9814e-01   1.1606e+00   1.0547e+00   5.0062e-01   2.2394e-01   8.8039e-01  -7.8602e-02  -4.5585e-02  -7.3199e-01   8.4726e-01   2.5679e-01   7.2013e-01
  -1.1557e-01   2.3119e-01   9.7123e-01  -8.6153e-02   4.0057e-01  -6.8793e-01   4.7875e-01   6.1646e-02   9.9334e-01  -2.1901e-01  -2.3371e-01   3.8790e-01   1.6686e-01  -5.1569e-02  -6.9434e-01  -7.9937e-01   2.3427e-01
   1.1863e+00  -4.7456e-01  -9.7701e-01   1.5885e+00  -9.4675e-01  -1.0037e-01   1.3238e-01   4.6094e-01   1.3408e-01   3.4119e-01   4.6028e-01  -7.6490e-01   4.7297e-01   8.7766e-01   3.8222e-01   4.7223e-02  -1.4253e-01
  -0.0807  -0.0114   1.5609  -0.7519   0.9847   0.2188   0.9039  -1.3020   0.5365  -0.5427  -0.4601   3.2334   0.6196   0.5491  -1.9523

