  -0.4923  -0.5400   0.5604  -0.6410  -0.5715  -0.3781  -1.0167  -0.9179   0.1777   0.7583  -0.1321  -0.5192  -0.6446  -0.7808  -0.1690  -0.3850  -0.1959
   0.7542  -0.0754   0.8629  -0.9855  -0.3454   0.8416  -0.3220  -0.4334  -0.0129   1.0196   1.0078  -0.2678   1.0032   0.5875   0.6017  -0.3875   0.0231
   0.4005   0.8775  -1.2151   0.9041   0.6005  -1.5617   0.1199  -0.2387  -0.3293  -0.1478  -0.6314   0.7056  -0.0968   0.1257   0.2027   0.1006  -0.5235
   0.2198  -0.6508  -0.1363  -1.2228  -0.2760  -0.6546   0.7167  -0.7432   0.0611  -0.7951   0.0689   0.5349  -0.3661   0.5837   0.8178   0.9385  -0.3511
   1.3483   0.1421  -0.5360  -0.7106   0.4810   1.3033   0.2753   0.0055  -0.2293  -0.4075  -0.1416   0.0560   0.1636   0.1177  -0.3780  -0.4542  -0.5605
  -0.0039   0.3066  -0.6732   0.8247  -0.4717  -0.3406  -0.0439  -0.8941   0.6093   0.8024  -0.1510   0.8083   0.5635   0.8383  -0.0498  -0.5557  -0.1827
   0.6637   0.5023  -1.0777  -0.0110   0.1917   1.4176  -0.4579   0.0705  -0.7000  -0.7235  -0.0635   0.6814   0.5149   0.3979   0.3631   1.0287   0.8861
   1.0565  -1.1304  -0.4401   1.4450  -0.0058  -0.1368  -0.6714  -0.2116   0.1083   0.1996   0.0547  -0.2493  -0.5889  -0.2251  -0.8534   0.7459   0.5250
   0.1058  -0.8026   1.1036   0.9120   0.0047  -0.5517  -0.6854   0.3365   0.7458  -0.6757   0.8700   0.2677  -0.4290  -0.4076   0.3157   0.3043  -0.0593
  -0.1999  -0.5625   0.5228   0.1260  -0.1884   1.0963   0.2314   0.3117  -0.6259   0.2923  -0.2076   0.8091   0.1384  -0.4201   0.6519  -0.5822  -0.0518
   0.1932  -0.4282   0.8042  -0.8916  -0.3948  -0.5120   0.1441  -0.5546   0.9414  -0.2707   0.4199  -0.8800   0.0979  -0.4836   0.3581   0.6963   0.3956
   0.8556  -1.4490   1.2152   0.6448  -1.9174   0.0574   0.4494   0.3165   0.2976   0.1429   0.1547   1.6972  -1.0005  -0.7063  -0.7693   0.1995   0.0722
   0.9218  -0.2612   0.1164   0.6847  -0.1711  -0.7150   1.1731   1.0459   0.5055   0.2248   0.8784  -0.0586  -0.0436  -0.7507   0.8477   0.2513   0.7293
  -0.1027   0.1936   1.0121  -0.0547   0.4054  -0.7081   0.4623   0.0941   0.9753  -0.2008  -0.2178   0.4269   0.1915  -0.0878  -0.7058  -0.7760   0.2270
   1.2498  -0.4128  -1.1268   1.7267  -1.0404  -0.1695   0.1932   0.3755   0.1857   0.3242   0.4012  -0.9575   0.5653   0.8684   0.4672  -0.0214  -0.0985
  -0.0283  -0.0594   1.9797  -0.7197   1.1455   0.1716   1.0546  -1.4842   0.5448  -0.6266  -0.5663   3.6594   0.5754   0.5205  -2.3796

