  -0.4628  -0.5452   0.4972  -0.5793  -0.4403  -0.6100  -1.0498  -0.9238   0.0883   0.8185  -0.1420  -0.6061  -0.5904  -0.7638  -0.1922  -0.4412  -0.1787
   0.6083   0.0287   0.9949  -0.9549  -0.3423   0.8980  -0.1798  -0.4854   0.0870   1.0348   0.9829  -0.0497   0.9973   0.5482   0.5190  -0.3620   0.0878
   0.6219   1.0303  -1.6519   1.2980   0.4476  -1.8654   0.0392  -0.2207  -0.0894  -0.4119  -0.6699   0.8527  -0.1599   0.0923   0.0894   0.0325  -0.5181
   0.0905  -0.5521  -0.1137  -1.2924  -0.2047  -0.6642   0.6164  -0.6508   0.0108  -0.8430   0.1591   0.7081  -0.3406   0.5340   0.6608   1.0560  -0.4764
   1.1250  -0.0509  -0.2248  -0.7409   0.4201   1.2896   0.3967  -0.2209  -0.0227  -0.8002  -0.0605   0.4290   0.0731   0.0373  -0.6851  -0.5913  -0.5284
   0.1698   0.2102  -0.5618   0.7396  -0.3743  -0.1642   0.2173  -0.9667   0.7616   0.7383  -0.0505   0.7144   0.4848   1.0517   0.0982  -0.7534   0.2038
   0.6301   0.1429  -0.9150   0.1302   0.1627   1.0750  -0.7044   0.0868  -0.7665  -0.9514   0.0006   0.7717   0.6322   0.1709   0.1522   1.0183   0.6662
   0.9954  -1.2164  -0.0341   1.7367  -0.3314   0.1560  -0.5238  -0.1003   0.2139   0.3233   0.0843   0.0661  -0.7316  -0.2214  -0.7708   0.8794   0.6504
  -0.4885  -0.8645   1.2282   0.4771   0.0586  -0.7023  -0.8886   0.0080   0.5966  -0.6170   0.4288   0.2052  -0.5648  -0.5411   0.1158  -0.1649  -0.1218
  -0.5290  -0.3255   0.5310  -0.1705  -0.0537   1.1741   0.1628   0.2963  -0.6834   0.3121  -0.2539   0.8271   0.1899  -0.5722   0.6505  -0.6274  -0.0905
   0.1795  -0.8826   1.1247  -1.0451   0.1345  -1.0355  -0.0287  -0.5294   0.9342  -0.1574   0.1661  -0.7302   0.2081  -0.6522   0.1192   0.6652   0.2790
   0.9100  -1.5764   1.3453   0.6835  -2.0771   0.2357   0.4869   0.3362   0.4283   0.0947   0.1295   2.4160  -1.2458  -0.9944  -0.8976   0.2934   0.0355
   0.8956  -0.0339   0.2045   0.6781  -0.0500  -0.5404   1.3621   1.1461   0.6565   0.3748   0.8665   0.2282  -0.0343  -0.7640   0.8540   0.4481   0.8217
   0.1918  -0.0174   1.2721   0.6845   0.2219  -0.9204   0.3104   0.5896   1.0252   0.0224  -0.1474   0.7416   0.1501  -0.0322  -0.6911  -0.5461   0.3405
   1.5772  -0.3118  -1.5773   2.1562  -1.3954  -0.2661   0.1961   0.3505   0.2156   0.3170   0.3563  -1.2409   0.7511   0.8841   0.5269  -0.1125  -0.0295
  -0.3269   0.0685   2.7083  -0.7741   0.8055  -0.4619   0.5837  -1.8513  -0.2711  -0.5119  -1.1693   4.4316   0.6298   1.0056  -3.3206

