  -0.0603   0.8389   0.4744  -0.8954  -0.0124   0.1165  -0.7879   0.8162  -0.5114  -0.7491  -0.8083   0.5691   0.0801  -0.2988  -0.5113   0.5141   0.9391
  -0.5015  -0.4584  -0.0738   0.6201  -0.4892  -0.2514  -0.2647   0.8426  -0.5253   0.2175   0.5267  -0.5951  -1.1533   0.0753   0.8082   0.4580  -0.5101
   0.5699  -0.6456  -1.0252  -0.9166  -0.9079  -1.0164   0.6882  -0.0838   0.7022  -0.1191  -0.6037   0.5957   0.0316   0.2284  -0.4528   0.2921   0.0580
  -0.1236   0.3719   0.3353  -0.2917   0.0848   0.1458  -0.5680  -0.6091  -0.4881   0.5890  -0.8866  -0.1093   0.5535  -0.6076   0.4467   0.3950  -0.2870
   0.3026  -0.6247   0.4783   0.1410   0.2579   0.0447   0.5189  -0.4124  -0.5204   0.0965   0.8311   0.6656  -0.9308   0.4450   0.2203   0.1467  -1.0179
   0.5666  -0.7188   0.5052  -0.4715   0.6745   0.4404   0.2666  -0.4479   0.4647   0.9539   0.0088  -0.2230   0.1050   0.4180  -0.3160   0.1367  -0.3473
   0.2703   0.1657  -0.1510  -0.0310  -0.5722   0.4159  -0.8917   0.4989   0.3075  -0.7656   0.6450  -0.3030  -0.3116   0.0008  -0.5338  -0.3549   0.2636
  -0.2308   0.2669   0.1470  -0.4067  -0.5331  -0.6275  -0.6830  -0.3591  -0.1541  -0.0849   0.6925  -0.8023   0.8472  -0.5233   0.8588  -0.4061  -0.2600
   0.3146   0.3916  -0.8157   0.5822  -0.3464   0.6701   0.5134  -0.4205   0.6322  -0.6584   0.5785   0.5811  -0.4386   0.3346  -0.5475   0.4626  -0.5933
  -0.2560  -0.1303  -0.5584  -0.4544  -0.0573   0.2668   0.0028   0.7209   0.2554   0.1650   0.4248   0.2071  -0.4660  -0.0785   0.0404  -0.4878   0.8441
  -0.0355   0.8253   0.5735   0.3432  -0.2508  -0.2279   0.2822   0.4369   0.6645  -0.2059  -0.3143   0.2494   0.0090   0.4439  -0.2319   0.6139   0.3540
   0.3959  -0.5776  -0.1481   0.5046  -0.6418   0.0045  -0.7834   0.4186  -0.4565   0.7619   0.5286  -0.8758   0.3059  -0.3254   0.4454  -0.0892   0.0052
  -0.1880   0.3113   0.6491  -0.1465   0.8175  -0.1676   0.4334  -0.1509   0.4390  -0.1605  -0.7601  -0.2340  -1.1871   0.1017  -0.0680   0.4461   0.1370
  -0.4163   0.9116   1.0162  -0.3781  -0.2352   0.8227  -0.2444  -0.4362   0.3013   0.2792  -0.8013   1.0163   0.2187  -0.3084  -0.4558  -0.4732   0.8543
  -0.4023   0.8944   0.3245   0.4783  -0.3370   0.7350   0.0645   0.3638   0.4641  -0.7272  -0.1480   0.5068   0.2098  -0.2790   0.1358   0.9950   0.3810
  -0.4137  -0.3821  -0.8810  -0.1527   0.0390   0.1833   0.0492   0.1299  -0.2660  -0.0264  -0.5316  -0.1673  -0.7598   0.1307  -1.1854

