   0.3155  -1.6614   2.0605  -1.9463   0.7297   1.6556   2.9560  -3.2305  -1.5925   1.3401   0.8741  -2.5848   1.6409   1.0210   0.7813  -1.3894   2.1655
   1.3407  -1.2921   1.1601   2.4878   0.4821   1.1252   2.6793   0.8331   1.6492   0.4083   1.4870   0.1056   1.6702   1.3652  -0.9778  -0.0278   2.7271
   2.0678  -0.5007   1.6387   1.0292   1.3198   1.0862   1.3195   0.4165   1.8936   1.0153  -0.1614   2.5664   1.9173   1.2729  -0.0346   1.5619   1.1786
   0.4228   3.4114  -3.1243   0.0128   2.6730  -2.0739  -4.0581   7.3621  -1.0137   2.0734   2.2239  -1.2942  -0.9674   1.0626   2.1240  -1.7357   4.6554
   3.8670  -1.3440  -1.6919   4.2148   0.2415   0.7525  -5.0966   7.8381   5.0227  -0.6081  -0.2868   5.4345  -0.6283  -2.3805  -0.9128   3.3485  -1.4431
   0.5792   3.2417   1.5059   1.5842   1.7062   2.0585   1.2485   3.6128  -0.0833   1.2892   4.0816   2.0577   2.4902  -2.0475   2.8340   1.2350   2.5053
  -1.5979   2.1979   2.0217   1.5357   0.7988   0.4205   0.7869   1.0534   2.5289   0.5447   0.0279  -0.2205  -0.5095   0.5243   2.1997   3.8765  -0.5214
  -0.2485   1.8402   0.9783   0.8465   2.0737   0.7635   1.1082   3.3311   1.2173   1.4503   0.9915   1.3827   1.1844   1.8925   0.5122   2.0779   2.1259
   2.3559  -3.6864   1.6381   0.4683  -1.8425   0.1976   1.1445  -2.9976  -3.4657  -0.0138   3.3799   3.4537  -0.9890  -5.5088   0.3365   0.4380  -3.4390
   0.0205   0.0598   1.8209   1.3599   0.7800   0.9436   2.1555  -1.3106   0.7048  -3.4361   3.9187   1.1482  -0.5014  -0.2342   1.7742   1.1249  -0.7521
  -1.5883   0.3916  -1.5122  -1.9502  -1.1096   0.1389  -1.8668  -0.5260  -2.4123  -1.0929   1.7870  -2.0503  -1.5055  -0.6056   1.4011  -1.6804  -0.6876
   1.1186  -1.5871  -0.5498   2.2958  -2.2992  -0.5233   0.1996  -0.8934   2.8454  -1.3338  -1.3699   0.7807   0.4036  -1.3901  -0.6299  -0.8071   1.4727
  -4.6812   0.7921   1.2311  -4.7575   0.8043   1.4560  -2.1212   1.0663  -4.2845   1.1502   1.6864  -4.9861   1.5908  -0.1194  -0.9421  -4.2219   2.6721
   7.8293  -4.1488  -4.8083   8.2054  -4.9578  -4.2037   6.0264  -6.6895   5.6183  -3.8782  -3.8088   8.8590  -4.8473  -5.0189  -0.5060   5.7526  -7.5412
   1.1115   0.7055   0.3753  -0.0049   1.6245   0.7786   1.2708   1.5690   2.4440   0.7788  -1.0394   1.3465   0.7738   0.9068   0.6054   1.5836   1.2785
  -16.8799  -23.7338   -7.0135    8.2338  -46.4796    1.7598    1.8925   -9.6797    5.9164    0.7817  -27.8754   14.3996  -46.8266  -37.4512  -11.8058

