   0.0925  -0.8895  -0.6731   0.8119   0.2366   0.9773  -0.4455  -0.9854  -0.2532  -0.9937   0.5927  -0.2188  -0.6340  -0.3257   1.0038   0.8526  -0.9818
  -0.3977   0.6434   0.9037  -1.0643  -0.2805   0.5672  -0.1355   0.5777  -0.5327   0.4337   0.9165  -0.3715   1.0367   0.9583  -0.7587  -0.2883  -0.1493
  -0.0676   0.2205  -0.5752   0.4081  -0.0360   0.3357   0.2724   0.1834   0.8034   0.7186  -0.3162   0.9401   0.5842   0.7907   0.1158  -0.3907   0.3775
   0.1909   0.3376  -0.6852   0.1315  -1.0279   0.0725   0.4345   0.2702   0.7951   0.0088  -0.0502  -0.4629   0.2087  -0.3531   0.3775   0.8493  -0.3988
   0.2526   0.3260   0.4082   0.7242   0.0855  -0.2648   0.4649  -1.0232  -0.6412  -0.3726   0.2754  -1.3234   0.2863  -0.6644   0.6172   0.1267  -0.4657
  -0.9085  -0.0549  -0.4582  -0.8532   0.0323  -0.1595  -1.0904   0.8960  -0.3301   0.5308   0.4876  -1.1149   0.3450   0.6544  -0.5525  -1.0583   0.2654
  -0.0408  -0.6406   0.1368  -0.6296  -0.7620   0.0491  -0.9884  -0.4589   0.6779  -0.3989  -0.5974  -0.7985  -0.7150   0.2071  -0.4827   0.2052   0.0557
  -0.0836   0.3413  -0.1444  -0.8309  -0.8452   0.2389   0.5940   0.3326  -0.3813  -0.0899   0.3556  -0.2193   0.4896  -0.6376   0.9082  -0.4296   0.0556
   0.0387   0.8778   0.2627   0.7168   0.3469   0.2126  -0.4608  -0.1493  -0.5881   0.1022   0.9643  -0.0121  -0.2831  -0.2279   0.5467  -0.2292  -0.1069
   0.0592  -0.7779  -0.1736   0.8861   0.0507  -0.0879   0.4754   0.6265  -0.8464   0.5996  -0.0362   0.2486  -0.8019  -0.5830  -0.0142  -0.8691  -0.3396
  -0.4381   0.3945  -0.8616  -0.7675  -0.2921   0.0922  -0.4835  -0.6621  -0.8533  -0.3890   0.3417  -0.6196  -0.5112   0.4443  -0.9417  -0.3508  -0.7902
  -0.1438  -0.2271   0.3505   0.5495   0.3317   0.5425   0.1955  -0.5828   0.3499   0.4238   0.8709   0.7881   0.8956   0.0529  -0.5974  -0.4656  -0.0108
   0.1658   0.7196   0.3102  -0.4507  -0.2751  -0.5169   0.1973   0.0293   0.1050   0.6991  -0.4424  -0.5712   0.8958  -0.4889   0.0578   0.2122  -0.3338
   0.1006  -0.6018   0.1796   1.0355   1.1228   0.3395   0.6830  -0.7881   0.4558   0.6405  -0.3869  -1.0626  -0.0516  -0.6732   0.9481  -0.1207   0.5185
  -0.1397  -0.3253   0.3490  -0.7597   0.0115   0.0892   0.0021  -0.8163  -0.4114   0.7310  -0.1258   0.6079  -0.2592  -0.0171  -0.0817  -0.3850  -0.3853
  -0.6955   0.6915  -0.5992  -0.3735   0.6050  -0.6928   0.3018   0.0548   0.3388  -0.0746  -0.2648  -0.3212   0.2918  -0.5803   0.0600

