   2.6470  -2.2782  -2.9681   3.9563  -1.1968  -2.1710   2.8436  -2.8744   3.8288  -1.4587  -1.7204   3.8191  -2.2270  -0.9881  -0.6271   1.7871  -2.5121
  -0.4208   0.5256  -0.2913   0.9386  -0.2031  -0.5198   0.5749   0.7250  -0.3632   0.1772  -0.3813   0.2617   1.6018  -1.3115  -0.4256  -1.5859   1.1115
   0.8090  -0.5700  -0.8486   1.3506  -0.1421  -0.1546   0.8990   0.9968   1.6887   0.3370  -2.2071  -0.4177  -0.0540   1.2837   0.7145   0.0721   0.8690
   1.2262  -1.2250  -0.8599  -0.1822   0.7374  -0.4600   0.9077  -0.5997  -0.5781  -0.0007   0.0148  -0.2396  -0.0279   0.1785   1.5328   0.1982  -1.3807
  -0.5363   0.3373   0.8413  -1.0599   0.2424   0.3907   0.1968  -0.3702  -0.7226   0.2647   0.3993   0.1008  -0.9629  -0.1830  -0.6267  -0.9091  -0.7314
   0.0752  -0.1974   0.1636  -1.1071   0.2292  -0.3286  -1.5370   1.3582  -0.2853   0.0619   0.0704  -0.8483  -0.3650   0.3457   0.8307   1.9788  -2.3232
  -1.5244   0.8570  -0.0391  -1.0814   0.5417   0.7977  -2.2889   1.1545  -2.0113   0.4367   0.4628  -1.7952   0.2320   0.5097   0.3861  -1.2343   0.9255
   0.5059   1.0321   0.4367   0.8555   1.4195  -0.5916  -0.0256   1.1004   0.3975  -0.8936   0.8673   1.4417   1.0521  -0.8569  -0.1487  -0.2301  -0.0379
   0.6819   0.4712   0.5574   1.3592  -1.3820   1.2439   1.5932  -1.0305   0.7802  -0.0973  -0.6308  -0.5291  -0.0023  -0.5440  -0.5064  -0.6495   0.7129
   0.7666  -0.1537  -0.7870   0.6575  -0.7977   0.3243   0.3428  -0.0368   0.3497   0.6355  -0.9541   1.6507  -0.7445  -1.0555  -0.3943   1.4813  -2.3054
   0.2164  -0.5584   0.6802   0.6780  -0.7085   0.7985  -0.3167  -0.4578  -0.0921  -0.0088   0.7355   0.6059   0.4971  -0.3385  -0.5473  -0.4712   0.6830
  -0.8527  -0.3073  -0.3355  -0.8985  -0.1765   0.1167  -0.8126  -0.4362  -0.9449   0.3593   0.3470  -0.3098   0.1850   1.1169   0.9487  -0.4599   1.2749
   0.3029  -1.7360  -0.3050  -0.0959  -1.4912  -0.0653   0.2900  -0.8911   0.2044  -0.7087  -1.0386   0.5592  -1.0735   0.0316   0.1946   0.3696  -2.2836
  -0.2598  -0.3185   0.6935   0.7787  -0.9996  -0.2293  -0.5415   0.8956   0.0354  -0.0124  -0.4193  -0.5729  -0.9131   0.4567  -0.1620  -0.3219  -0.0724
  -0.5537  -0.4811   1.4269  -0.0071   0.3247  -0.8944   0.4294  -0.8918  -0.6464  -0.7758   2.1971  -0.2251   0.9165   0.8147  -1.1258  -0.5820  -0.1849
  -2.7426   0.6097  -0.7749   0.8763   0.2632  -0.2573  -1.7885   0.3670   0.5462   0.6436  -0.4315  -0.2351  -0.0126   0.7573  -0.0910

