  -0.2269   0.2131  -0.8614  -0.6701   0.6209   1.0777   0.3911  -0.9572  -0.4880   0.1730   0.0758  -0.2323  -0.0494  -0.2658  -0.1642   0.1753  -0.5803
   0.3915   1.0075  -0.0296   0.4648  -0.4915  -1.2372  -0.1909  -0.6533   0.4132  -0.1571   0.1349   0.3678   0.8272  -0.5041  -0.8178  -0.8017   0.5192
  -0.1528  -0.5022  -0.7174  -0.9055  -0.7718   0.2774   0.0006   0.7222   0.1645   0.2254   0.0763  -0.5750   0.5727  -1.1387   1.5995  -0.2024   0.0583
  -0.2252   0.5655  -0.2489  -0.6173   0.4034   2.1564   0.7461  -0.0197   0.2257   0.2205  -0.6352   0.2088  -1.4046   0.0860   0.7881   0.2894  -0.5010
   0.1519   0.0516   0.1507  -0.3153   0.3903   0.0228  -0.3885  -0.4851  -0.0260   0.9054  -0.7469   0.9923   0.2471  -0.7671   0.6418  -0.0494  -0.8170
   0.1824   0.3801   0.2248   0.2418   0.3385   0.7706   1.0183   0.1493   0.7504   0.3633  -0.6008  -0.9202  -0.9742  -0.9009   0.6082   0.0878  -0.2853
   0.1457   0.8798   0.8416  -0.7077   0.3646   0.0656   0.0024  -0.7457   0.2761  -0.8822   0.8906  -0.0294  -0.4274   0.0886  -0.4875   0.0757   0.5214
   0.3278  -0.7817  -0.4943  -0.2906   0.3737  -0.1021   0.9533   0.7168   1.0892  -0.8529   0.3967  -0.7949   0.3862   0.1784  -1.1360   1.0390  -0.1535
   0.1696  -0.9108   0.3208   0.6252   1.0066   0.5232   0.1423  -0.6213   0.9393  -0.3629  -0.7197  -0.7250   1.2830  -0.7292  -1.3440  -0.9825   0.0375
   0.3313   1.1819   0.6774   0.1723   1.2923  -1.3615  -0.1895  -0.8377  -0.2170  -0.4617   0.0591   0.9797   0.1588   0.7635  -1.6155   0.1773   0.8349
  -0.0379   0.4355  -1.1179  -0.8948  -0.7975   1.0674   0.5369  -0.3386  -0.7952  -0.1577   0.4851  -1.3383  -0.2667  -0.2547   0.6018   0.5673  -0.1525
  -0.4370   0.1628   0.3747  -0.0993   0.5492   0.1965   0.5598   1.2858   0.5431   0.5707  -0.2371  -0.6185   0.5809  -0.5507   0.3947   0.3704   0.7397
   1.1708   1.2427   0.5746   0.6878   1.0265   0.4383  -0.1322  -0.3936   0.9668  -0.6495   0.2087   0.8543   0.6503   0.8243   0.4386   0.8290   0.0024
   0.1849  -0.7381   1.0164  -0.6924   1.1984  -0.5060  -0.1354  -0.7784  -0.0373  -0.5578   0.4754  -0.5602   0.6776  -0.5854   0.3729  -0.0234  -0.0397
  -0.2981  -0.7416  -0.3001   0.5690   0.5286  -0.9080  -0.1770   0.0795  -0.6305   0.4188   0.2754   0.3907   0.3268  -0.6446  -1.1683   0.3887  -0.0139
  -0.7537   0.8403  -1.7516  -1.0798  -0.2402  -0.5024   0.1951   0.3454   1.4482   1.7480  -2.0289   0.3648   0.1505  -0.2559   1.3185

