   0.3813  -0.8937  -0.6101  -0.1761  -1.2139   2.4054  -1.1985   0.9907  -0.1485   1.1468   0.5749  -0.4699  -0.0829  -1.5721   0.9477  -0.6180  -0.3832
  -0.2362   0.2134   0.0998  -1.6485   1.0951   0.8474  -0.8260   0.9084   0.5596   0.2448   0.3404   0.5519   0.1262   0.5217   0.9620   1.5417   0.7240
  -0.4983  -1.4556  -0.8896  -1.1520   0.6196  -2.1015  -0.9628  -1.8476  -1.0236  -0.7093  -1.1630  -0.5728  -0.6666  -0.9075  -2.1663  -1.1195  -1.4029
  -0.8428   0.0769  -0.3572  -1.0381  -0.0007  -0.8609  -0.6589  -1.1196  -0.9578  -0.7601  -0.0165  -0.6061  -0.5976  -0.0649   0.0513  -0.1481  -1.0590
  -0.6508  -0.5203  -0.0844  -0.4058  -0.6129  -0.3739   0.3076  -0.5723   0.1914   0.0928  -0.1876  -0.9670   0.3865  -1.0751   0.7028   0.2201  -1.7980
  -0.8898   0.4541  -1.3794  -1.1474  -1.9128   3.9858   1.4196  -0.6981  -0.1243  -0.0624  -0.3578  -1.8548  -1.3652   0.1920   3.7592   0.8791   0.1342
  -0.3215   0.1043  -0.1106  -1.9449  -0.7161   2.7770   0.6742  -1.4127   1.4056   0.0693  -0.1092  -1.9433  -0.8368   0.3732   1.7706   1.0541   0.1229
   0.0131   0.3643  -0.9636  -1.1768   0.8220   0.7288  -0.6727   1.9241  -1.0586   1.1034   0.2965  -0.7606   0.1518  -1.1317   1.4636   0.3832   1.1922
  -0.9731  -0.0152   0.1027   0.4933   0.3140   0.2844   0.4939   0.2198  -0.0662   0.5140  -0.4710  -0.6537   0.8268   0.5694  -1.8221  -1.2246  -0.2555
   0.0526  -1.8199   0.3004   0.7361   0.6492  -2.2265  -1.0237  -1.3786   1.7079  -0.2901  -0.1866   2.0448   1.3713   0.7880  -2.3380  -1.5042   1.1782
  -0.4580   0.3601  -0.0667  -1.4150  -2.1685   0.1628  -0.0474  -0.4792  -1.3651   0.7914  -0.5242  -1.1016  -1.3375  -1.3201   3.0990  -0.6852  -0.4368
  -0.0117   0.9146  -0.0016   0.3553  -0.6425  -0.1605   0.8788   0.7343  -0.6872  -0.7697   1.0718   1.0757  -0.9880  -1.2974   0.7278   0.2915  -0.8272
   0.0796   0.5233   0.7039   0.8755   2.3756  -1.9832   1.4427  -1.5030   1.7887   0.3273  -1.5376   0.3588   1.5314   1.6483  -1.8657   0.2120  -0.1256
  -0.6881   0.2768   0.7205  -0.5238  -0.3812   1.0581   0.7838  -0.0906   0.6187   0.5478  -0.7542   0.2855  -0.3871   0.2501   1.1749   0.7738   0.0441
  -0.5788   0.6758   0.6682  -1.1463  -0.7342   0.0094  -1.0792  -0.3482   0.8101  -0.0835  -0.1358   0.4510  -1.2790   0.7518  -0.7227   0.5489  -0.0405
  -10.3764   18.0858  -11.4932    1.3176    8.5858  -20.2942  -18.9347  -19.6407    9.2613    4.2570    4.9517   -1.3562    2.3674    3.5122   16.6970

