   0.1930   0.2460   0.1652   0.2170   0.1520   0.1779   0.2738   0.3993   0.1078  -0.2101   0.2241   0.4460   0.5479  -0.0256  -1.7021   0.3027  -0.1811
  -0.0882   0.4829   0.2579  -0.4044  -0.4710  -0.3645  -0.3609  -0.2931   0.3532  -0.5286  -0.5886  -0.3933  -0.4849   0.5137  -0.5631  -0.2556  -0.4432
   0.2056  -0.0462   0.1821   0.0994  -0.3657   0.2358  -0.7376   0.0206   0.5519   0.3099  -0.5063   0.1305   0.2212   0.2745  -0.7627   0.0259  -0.1294
  -0.0059   0.0058  -0.3755  -0.1399  -0.3551   1.2797   0.3639   0.8978  -0.1022  -0.1028   0.2634  -0.5736   0.4606   0.0744   1.0823   0.4869   0.0712
   0.3659  -0.5476   0.3268   0.4065  -0.2583   0.2499   0.1750   0.1489   0.1693   0.5781  -0.2758  -0.0163   0.3124  -0.6776   0.4822   0.1745   0.5848
   0.1975  -0.6499  -0.0277   0.3043  -0.5465   0.0457  -0.3324   0.1881   0.3033   0.0395   0.2370  -0.0151  -0.5714  -0.4617  -0.5626   0.2763  -0.1124
  -0.8529  -0.1569   0.8777  -0.0067  -0.8101   0.8157  -0.8465   0.5430   0.1430   0.7932  -0.2528  -0.0087   0.4868   0.6070  -0.0867   0.7120   0.0981
   0.2689  -0.8464   0.2682   0.8299  -0.3814  -0.3833   0.0853  -0.9672   0.2919  -0.3764  -0.6730  -0.1556  -0.6476   0.3597  -0.1525  -0.2715   0.5592
   0.0233  -0.4508  -0.1147   0.2377  -0.5917   0.3299   0.0525   0.2438  -0.1966   0.2574   0.1639   0.2551  -0.0759  -0.1098  -0.3233   0.4689  -0.2756
  -0.3008  -0.5471  -0.5757  -0.8657  -0.6307   1.1242  -0.6547   0.3942  -0.5918  -0.0759  -0.0572   0.1470  -0.2304  -0.9689   0.6648  -0.3533  -0.0320
   0.0642  -0.2336  -0.3091   0.7459  -0.1940   0.5155  -0.4202  -0.5013   0.4358  -0.2382   0.0635   0.1156   0.1398  -0.2074  -0.2804  -0.1681   0.0130
  -0.3591   0.2775   0.3646   0.5634  -0.5403   0.5356   0.4717   0.2827   0.0159   0.1608  -0.0324   0.6025   0.2370   0.3648   0.8669   0.7724   0.2098
  -0.2614   0.3301  -0.2201  -0.5541  -0.2398   1.0084  -0.3184  -0.0018  -0.6102   0.5421   0.4214  -0.2150  -0.0934  -0.6389   0.7634  -0.2210  -0.3703
   0.5439  -0.3337  -0.0450   1.2206   0.4973  -2.1380  -0.5122   0.2479  -0.6339  -0.2710   0.0975   0.5349   0.8017  -0.8461  -2.0644  -0.1856   0.3751
  -0.0271  -0.3660   0.4284   0.7971   0.3616  -0.6893  -0.0828  -0.0167   0.2851  -0.5359  -0.2169   1.1093   0.6771  -0.3172  -2.7192  -0.6988   0.0225
   0.0788   0.4958   0.0719   0.0319  -0.7356  -0.7321   1.9956  -0.0788  -0.1926  -2.4374  -0.4640   0.1442  -0.6962   2.8447   1.8954

