   0.4371   0.3517   0.1618   0.1585   0.2956   0.4107   0.3713   0.6822   0.0407  -0.1665   0.3553   0.4281   0.6649  -0.2197  -1.9231   0.5503  -0.3212
  -0.0599   0.6852   0.3116  -0.5920  -0.7006  -0.5998  -0.5850  -0.4312   0.4503  -0.8062  -0.8249  -0.5540  -0.7290   0.6810  -0.8236  -0.4017  -0.6817
   0.3422  -0.0596   0.3603   0.1393  -0.5102   0.4577  -1.0307   0.0912   0.8254   0.4787  -0.6402   0.1064   0.3357   0.3983  -0.9121   0.1681  -0.1905
  -0.1515  -0.0363  -0.4976   0.0863  -0.3880   1.3509   0.6212   1.1411  -0.1744  -0.2426   0.3807  -0.7562   0.7546   0.1321   1.3059   0.5690   0.1415
   0.4564  -0.7311   0.5459   0.5038  -0.3938   0.5394   0.2050   0.3334   0.2389   0.7696  -0.2493  -0.0378   0.4650  -0.9597   0.7373   0.3419   0.8473
   0.2132  -0.8991  -0.0394   0.4483  -0.7433  -0.0062  -0.4002   0.1769   0.3043   0.0738   0.4812  -0.1393  -0.7308  -0.6720  -0.8736   0.4621  -0.2248
  -1.0319  -0.2902   1.0757   0.2553  -1.0686   0.7628  -1.0530   0.5505   0.3175   1.0500  -0.3948   0.1869   0.7404   0.7897  -0.2732   0.9028   0.2593
   0.4034  -1.1410   0.4750   1.1187  -0.6201  -0.2012   0.1765  -1.2950   0.3831  -0.4878  -0.8279  -0.3335  -0.9243   0.5861  -0.0192  -0.1849   0.8149
  -0.0361  -0.6941  -0.2221   0.3889  -0.8733   0.3066   0.0497   0.2515  -0.3455   0.3174   0.2224   0.3497  -0.1172  -0.1900  -0.5637   0.5868  -0.4394
  -0.3698  -0.7866  -0.7278  -1.1354  -0.6176   1.4405  -0.8055   0.6600  -0.6451  -0.1751  -0.0195   0.0359  -0.2974  -0.6286   0.5550  -0.4122   0.0803
   0.0542  -0.3783  -0.5053   1.0172  -0.2940   0.7584  -0.6793  -0.8122   0.5679  -0.3663   0.0747   0.1246   0.1556  -0.3215  -0.4203  -0.2812  -0.0646
  -0.5170   0.2136   0.5610   0.8504  -0.7246   0.5439   0.6482   0.3142  -0.0895   0.2394  -0.0997   0.8718   0.5011   0.5825   0.9754   1.0759   0.2269
  -0.3290   0.3037  -0.2730  -0.5634  -0.4759   1.2881  -0.4290  -0.1217  -0.8872   0.7236   0.6199  -0.5567   0.1301  -0.5309   0.6107  -0.4974  -0.4584
   0.6068  -0.1915  -0.1033   1.1515   0.5787  -2.2932  -0.6476   0.3176  -0.9089  -0.2737   0.0406   0.3133   0.5263  -0.7729  -2.3543  -0.1344   0.4828
   0.2014  -0.4431   0.5308   0.8386   0.4943  -0.3949  -0.0933   0.1809   0.3422  -0.4643  -0.3408   1.1818   0.6241  -0.3968  -3.0415  -0.9313   0.1567
   0.1438   0.4640   0.0027  -0.3859  -0.5674  -0.6913   1.2483  -0.1991  -0.3100  -2.0246  -0.2131  -0.3163  -0.9996   2.2127   1.7641

