   0.0994   1.6109  -0.1022   1.4032   0.8652  -0.4191  -1.2344   1.7503   0.8129  -0.5547   0.2640   3.0936  -0.4029   1.3283  -1.1561   0.3174   0.7972
  -0.0987  -1.7556   0.9159  -0.5207   0.9648  -1.3859  -1.5378  -0.8494  -1.0843  -0.5863  -0.4327  -0.5890   0.3091  -0.4957   0.0978  -0.6684   0.3007
   0.9294  -0.4655   0.4304  -0.2293   1.0093   1.0299   1.6723   0.1618   0.2265   0.4297   0.8020   1.3388  -0.0239  -0.7956   0.1982   1.1265  -0.2432
  -0.2017  -0.9749  -0.3143  -0.1863  -1.0762  -0.6994   0.1654  -0.2894  -0.5101   0.4479   0.4163   0.6226  -0.4012  -0.6134  -0.2201  -0.4390  -0.2794
  -0.2080   1.9157  -1.8540   0.0476   1.6856  -0.1014  -1.1226   0.9198   0.8615   1.4940  -0.2369  -1.5580   0.3844   0.1433   0.9166   0.7413  -0.1046
   2.2017  -0.6844  -1.5673   1.3718  -1.0617   0.4607   1.0058  -0.4308  -0.4853   1.3255  -0.5166  -3.4178   0.4614   2.8812   1.3711   0.1776   2.2479
   1.6254  -1.9562  -1.1230   2.3400  -1.7394  -0.7073   0.4075   0.8129  -0.0014  -0.4055  -0.1130  -3.9946   0.8725   1.5799   1.3309   0.6529  -1.5609
   0.8562   0.7138   0.1630   0.6698  -0.0090  -0.0276   0.9941   1.0902   0.4844   1.0897   0.5383   0.1710   0.6542  -0.1657   0.0100   0.6488  -0.7785
  -0.9281   2.8183  -1.2726  -1.6039   2.6274  -0.3063   0.0202   0.4333  -0.0248  -0.2001  -0.0384  -2.4136   0.6211   0.9194   0.4498  -0.9678  -0.6089
  -1.4355   0.6625   1.1603  -0.8303  -0.2639  -0.2698   0.3519  -0.7784   1.7719  -0.9473   0.1848   2.7666  -2.1080   0.4633  -1.2712   0.5743   0.6275
  -1.3146  -0.8927   0.2753  -1.1481  -1.8161   1.6742  -1.5594   1.0424  -1.7485  -1.1434   1.3754  -3.4192   1.5929   0.9336   0.4938  -0.6513  -0.3881
  -1.2500  -0.1682   1.6764  -2.1821   1.2197  -0.5897   0.8558  -0.7871   0.6918  -1.3344  -0.8268   0.3575  -0.5829  -0.1556   0.0786  -1.6158   0.8039
   0.8008  -1.2302  -0.5700  -0.7369  -0.1188  -1.2110  -0.2724   0.5629   0.1411   1.5241  -0.3331  -1.0843   1.7313  -0.4156   0.3874   0.1874   1.0829
  -1.3897   0.1781   1.4888  -0.1134  -0.0762  -2.0016  -1.3319  -1.0507  -0.2405   0.6652  -0.4126  -2.3616   0.6767   0.1257   0.1459   0.0001   0.1540
  -0.0989   1.6577  -0.1526   2.8674  -0.3440  -1.2365  -0.2081  -0.4061  -0.0267  -0.3792  -0.7185   1.9968  -0.2563  -0.5760  -1.1862  -0.5085   0.0304
   16.1594  -12.8701    8.5756    7.0156   -8.4038  -24.0820  -11.9754    1.1987  -14.1356   -2.7655   -9.6629    9.9197   -0.3085  -12.6586    3.4926

