   0.5201  -0.8458  -0.5497   0.1620   0.5848   0.0682   0.2870  -0.1126  -0.6647   0.4558   0.5546   0.3480   0.0227  -0.6860  -0.8088   0.9393   0.4358
  -1.5822   1.0296  -0.8768  -0.8828   0.9943  -1.2936  -0.5782  -0.0140   0.0105   0.4553   0.1596   1.5295  -0.8822  -1.4428  -1.2014  -0.0173   0.0720
  -0.2803   0.7844  -0.1814   0.8272   0.1300  -0.7983   1.0068  -0.1085   0.6433  -0.4948  -0.6457  -0.2795   0.1776  -0.8276   0.1290  -0.4892  -0.4277
  -1.3938   0.3974  -0.6829   0.8276  -1.3923  -0.3421  -0.5220  -0.3497  -0.9959  -0.1391  -0.0262  -0.6256   0.5570   0.4387   0.3341  -1.1707  -0.5687
   0.0155  -0.2953  -0.8061   0.2045  -0.8794   0.1961   0.3815   0.5451  -0.2050  -0.3336   1.0118  -1.6284   1.4795   0.1551   0.6189  -0.2514  -0.5697
  -1.2574   0.1608   0.0514   1.0863  -0.4188  -0.0863  -0.9035  -0.2872   0.1097   0.6697   0.9339  -0.7068   0.1171   0.2709  -0.4920   0.0915  -0.4289
   0.2342  -0.3028  -0.2269  -0.6686   0.2922  -0.7167   0.6062   0.9216  -0.7846   0.3473  -0.0966   0.2668  -0.0957  -0.7651  -0.3947  -0.4922  -0.0204
  -0.9374   1.2463   0.5063   0.0893   0.3555   0.3258  -0.1698   0.7734   0.1136  -0.6841  -0.9630   1.1014  -0.5588  -0.6332  -0.7513  -0.3909   0.3130
  -0.9695  -1.3552   0.9937   0.4074   1.1073  -2.0087  -0.4947  -0.1560  -0.1970   0.3737  -0.3233  -0.7588   0.4643  -0.5363   0.3317  -1.3324  -0.0541
   0.0797   1.1408   0.1368  -0.7141  -0.3886   0.8962  -0.3936  -0.3559  -0.0975  -0.6468   0.3638  -0.0060   0.7121   0.4224   0.7492  -0.3126  -0.6549
  -0.4230  -0.0396   0.1066   0.3287   0.7562  -0.7728   0.5703   0.7139   0.8649  -0.4040  -0.0874   0.6606   0.8803   0.2011  -0.3244  -0.6578   0.2213
  -0.2656   0.1601   0.5941  -0.4921   0.7178   0.2514  -0.5187  -0.2811   0.8669   0.0907  -0.2268   0.5973   0.7181   0.8912  -0.2205   0.2074  -0.2738
   0.3353  -2.0806   1.7777   1.5178  -2.3921  -0.0301   0.1527  -0.0855   0.0358   0.1487   0.3113   1.6622  -0.2489   0.1864  -0.3775  -0.1292  -0.3032
   0.8442  -0.2032  -1.2320   1.1057   0.4165   0.2406   0.4882   1.1424   0.4660   0.5297  -1.0204  -0.7012   0.5036   0.7548  -0.0305   0.4695  -0.2916
   0.7026   0.2339   0.0970  -0.2071   0.0120  -0.9438  -0.6292  -0.3788   0.6226   0.1891   0.3225   1.4186  -0.9765  -0.9533  -0.7806  -0.2520  -1.0097
   0.5752   2.2901   0.4370  -1.0064  -0.4612  -0.6408   0.3009   1.4736  -1.9850  -0.0920   0.9154  -0.0394   2.5941  -0.5202   0.6362

