  -0.0522   0.0030  -0.0720  -0.2210  -0.7255   0.7202   0.8233   0.7366   0.0475   0.7045   0.5036   0.8276   0.5236   0.3599   0.3113  -0.5151   0.1917
   0.3048   1.2109  -0.8337   0.5794   1.2874  -0.3871  -0.5938   0.9542   0.6032   0.7193   0.3246  -0.3659   0.1293  -1.0905   0.6898   0.4516  -0.7471
  -1.1461  -0.2624   0.2788  -0.5879   0.1273   0.3132  -1.1103   0.5643   0.8239  -0.8554   0.0262   0.8632  -0.6385  -0.3232   0.2452   0.0768  -0.8193
   0.4955   0.3754   0.2320   0.0729   0.1862  -0.7569  -0.1936   0.5042  -0.1855   0.2511   0.3884   0.7754  -0.0568   0.1204   0.8362   0.2495  -0.6336
  -0.2461  -0.6919   0.6080   0.7635  -0.1148  -0.4760   0.7922  -0.8567  -1.0978   1.1267  -0.5327   0.9308  -1.0011  -0.2196  -0.5526   0.0789   0.8579
  -0.2241   0.4747  -0.0427  -0.1102  -0.3245   0.4523   0.3000   0.8266   0.3557  -0.8156   0.5514   0.6614  -0.1736   0.3275  -0.1689   0.4261  -0.1375
  -0.6874   0.7502  -0.8359  -0.1209  -0.3354  -1.2003   0.3224  -0.0037  -0.3554   0.2491  -1.0207   1.0169  -0.6115  -0.0134  -0.7220  -0.6901   0.2569
   0.2513   0.6131  -0.0813   0.0826   0.4880  -0.1978   0.9501  -0.3169   0.8109  -0.4916  -0.2547   0.6483  -0.4559  -0.8366  -0.1164   0.4752  -0.2117
   0.5856  -0.0741  -0.1196  -0.7679   0.5139  -0.4315   0.0049  -0.5371   0.1825  -0.3738   0.4948   1.3995   0.5978   0.7838   0.7738   0.2516  -0.6771
   0.3555   0.5871  -1.1150   0.1019  -0.0421  -0.0968  -0.0705   0.2157  -0.2579   0.7321   0.7924  -0.4443   0.4813  -0.1938  -0.3722  -0.7778   0.3622
  -0.5382  -1.4874   0.5007   0.0174   0.7870  -1.6636  -0.5014   0.6040  -0.6347   1.0318   0.3369  -0.6845  -0.1515  -0.2047  -0.0866  -0.9369  -0.0046
  -1.5490   0.7679   0.9018   0.1789   0.3603  -0.1788  -0.6989   0.3827   1.6010   0.0064   0.2142   1.8417  -0.0330   0.4212  -0.7168  -0.2480   0.0806
   1.6276  -1.4596  -0.2732  -1.2674   2.1353   0.1881   0.6357   0.3440   0.6813   0.0037   0.2179   1.4417   0.2306  -0.2595   0.4030   0.0685  -0.2619
  -0.5570   0.7021   0.9349  -0.9361  -0.2432  -0.3754  -0.3475  -0.2448  -0.7573  -0.1775  -0.3864   1.0497  -1.0853  -0.9590  -0.9466  -0.3383   0.0690
  -0.7467   0.5736  -0.6543  -0.5664   0.8223  -0.7391  -0.4909   0.2919  -0.9117  -0.8179   1.0377  -0.4615  -0.4910  -0.7427   0.1811  -0.4399   0.1157
  -0.0788  -1.3680   0.6499   0.2482   0.5187   0.6944   0.5978   0.5002  -0.0163  -0.1751  -1.1743   1.3572   2.0616   1.3994   0.1887

