  -1.7441   1.9877   0.8016  -1.7311   0.6015   1.6818  -0.3278  -0.1064   0.1314  -0.0760   0.2543   1.6081  -0.9020  -0.5602  -0.5835  -0.1729   0.1811
  -0.8619   0.7499  -0.6262  -0.6597   0.7275  -0.8702  -0.2295   0.4421  -0.7186   0.4093   0.0724  -1.5057   0.0193   0.4028   0.6975   0.2926   0.1659
  -0.6077   1.7019  -2.5411  -0.5031  -1.5773   2.1444   0.1267   0.1812  -0.3176  -0.3545  -0.1626  -1.9871  -0.2113   0.1832  -0.0760  -0.0801  -0.4698
  -0.0477   1.1849  -1.2659  -0.0615  -1.0474   1.0724   0.7352   0.7017   0.1168   0.6537   0.1571   0.5287  -0.4324   0.0293  -0.2603  -0.0684  -0.0925
  -0.0048  -0.6406  -0.6114   0.3290   0.3806  -0.1837  -0.1792  -0.5157   0.0955  -0.2169  -0.0819  -0.6867   0.0163  -0.2451  -0.5490  -0.2570  -0.3747
   0.1623  -0.0370   0.1742   0.5804   0.3417   0.3049   0.5569   0.0604   0.6530   0.4856  -0.2519   0.1023   0.0218   0.1521   0.6378   0.6741   0.0122
  -1.6597   1.4845   0.7956  -2.1904   1.1803   1.2176  -0.1204  -0.0864  -0.1087  -0.6305  -0.0772   2.9635  -0.5654  -1.2557  -0.7881  -1.0159  -0.4239
   0.0761   0.1274   0.0266   0.5299   0.5001   0.1341   0.3908   0.6207  -0.0301   0.4949   0.3598   0.5144   0.5084  -0.8699  -0.2236  -0.2863   0.4965
   0.3584  -0.4178  -0.2993   0.5361  -0.5929  -0.2428   0.0610   0.8313   0.5380   0.1661   0.1268  -0.8787  -0.1893  -0.0376   0.7557   0.8868   0.1487
  -0.8108  -0.6784   1.1011   0.2122  -0.8339  -0.7293  -1.2098  -0.3240  -0.4683  -0.7998  -0.9219  -0.5016   0.5690   0.0625  -0.8833  -0.7865   0.0003
   0.8984  -1.0193   0.4022   0.9000  -0.7309   0.0572  -0.1669   0.3581   0.5247   0.1141  -0.6129   1.4897  -1.3428  -0.8280  -0.5007  -0.1117  -0.3405
  -0.5843   0.4014   0.2355  -0.6161  -0.2926   0.8634   0.1780  -0.4062  -0.3123   0.0723   0.2203  -1.7974   0.0934   1.2733   0.9750  -0.4002   1.0269
  -0.4419   0.8235   0.1577  -0.5333   0.3542  -0.6248  -0.7897  -0.0867  -0.2859  -0.0805   0.0037   1.3015  -0.7767  -0.2766  -0.4156  -0.3912  -0.3960
   0.5632  -0.4253  -0.0217   0.7612   0.5561  -0.1668   0.0840   0.1630  -0.3441  -0.0574  -0.1626  -0.5760   0.3230  -0.4353   0.6165   0.2462   0.3192
   0.5836  -1.8974   0.3134  -1.2978   0.9407  -0.2563   0.0218  -0.2770   0.5581  -0.4088  -0.3119  -0.3175   0.1839  -0.6172   0.4283  -0.0855  -0.2368
   2.0740  -2.0182  -3.2144   1.6687   1.5702  -1.3159   1.7491  -0.8805  -1.9303  -1.9670   2.0367  -1.4359  -0.3443   1.9062  -2.8181

