  -0.4170  -0.5115   0.8711  -0.6590  -0.7707   0.2535  -0.9559  -0.5642   0.3465   0.8253   0.0465  -0.2891  -0.6737  -0.9182   0.1819  -0.3127   0.1462
   0.7821  -0.2938   0.9024  -0.6310  -0.8043   0.7949  -0.3777  -0.5287  -0.1330   0.9789   1.0176  -0.5316   1.2244   0.5989   0.4818  -0.5675   0.0521
   0.0586   0.8422  -0.5776   0.3884   0.7678  -0.9530   0.6972  -0.5556  -0.5492   0.1521  -0.4510   0.5323  -0.1742   0.3870   0.4525   0.2048  -0.3673
   0.1337  -0.2441  -0.3245  -1.0424  -0.0383  -0.9403   0.8038  -0.6980  -0.1780  -0.8800   0.5254   0.6444  -0.2966   0.8800   0.4748   1.1058  -0.3859
   0.4113  -0.5384   0.2269  -0.1142   0.5975  -0.2642  -0.1141  -0.4597  -0.3439  -0.8784  -0.4108  -0.3226   0.6383   0.3124  -1.5234  -1.5084  -0.3608
   0.3797  -0.3415  -0.3519   1.1925  -0.0139  -1.1094  -0.2731  -0.6081   0.8509   0.8973  -0.4306   0.8635   1.1861   0.8993  -0.7317  -0.2479  -0.4336
   0.3964   0.2570  -1.1882   0.4272   0.0588   0.4891  -1.0205   0.0101  -0.9830  -0.9633  -0.1638   0.6699   0.7967   0.1395  -0.2719   0.6457   0.6460
  -0.2962  -0.8842   0.0818   1.4493   0.8499  -1.5814  -1.2743  -0.1934  -0.3874   0.0943   0.0710   0.4113   0.0437  -0.7550  -2.2013  -0.1103   0.7965
   0.3504  -0.7178   1.2177   1.3089   0.5488  -1.0493  -0.3262   0.4206   1.2900  -0.4027   0.4962   0.4191   0.2333  -0.3377  -0.1245   0.2678   0.4206
   0.1135  -0.3235  -0.1305   0.1351  -0.1105   0.9085   0.5452  -0.1030  -0.7953   0.5349  -0.3817   0.6461  -0.0791  -0.5695   1.0809  -0.3382  -0.3967
   0.1449  -0.4371   0.6251  -0.8952  -0.1879  -0.9516   0.0663  -0.7130   1.0629  -0.3579   0.1493  -0.9372   0.2920  -0.3210  -0.1777   0.5051   0.3504
   0.1852  -0.6182   0.7742  -0.4024   0.4830  -1.5764  -0.3418   0.8271  -0.1642   0.1547   0.3242   1.1924  -0.7636  -0.2778  -1.2105   0.7239  -0.7328
   0.8917  -0.7431   0.1543   0.8786  -0.3445  -1.2097   0.5068   1.2381   0.7830   0.0604   0.2910  -0.1405  -0.5699  -0.5681   0.7991   0.0137   0.4928
  -0.3686   0.3673   0.6100   0.1849   1.0841  -2.1207  -0.0803   0.1425   0.1487  -0.2833   0.1969   0.4712   0.7787   0.0832  -2.0025  -0.9248  -0.1185
   0.6355  -0.8183  -0.6455   0.7269  -0.9889   0.2404  -0.5129   0.5431  -0.1324   0.4729   0.0319  -0.4074  -0.4436   0.7532   0.5026  -0.1076  -0.5507
  -0.6456  -1.2150   0.1146  -0.8891   0.7663   1.8720   0.6386   2.9483   1.7066  -1.0041   0.7178   2.2665   1.0410   3.0819  -0.9177

