  -0.4465  -0.5222   0.7970  -0.6591  -0.7248   0.0933  -1.0670  -0.5676   0.2421   0.8178   0.0440  -0.2405  -0.6234  -1.0138   0.0642  -0.2979   0.0170
   0.7203  -0.1882   0.8483  -0.8715  -0.5742   0.7951  -0.4284  -0.4882  -0.1350   0.9933   0.9949  -0.4408   1.0501   0.6253   0.5288  -0.5367   0.0111
   0.0459   0.8018  -0.6078   0.3083   0.6751  -0.8635   0.7384  -0.6801  -0.5420   0.1320  -0.5214   0.4340  -0.2757   0.3646   0.5914   0.1410  -0.3868
   0.1779  -0.3184  -0.3844  -1.0242  -0.1038  -0.9829   0.7526  -0.7367  -0.1785  -0.9317   0.4876   0.5599  -0.3191   0.8266   0.5453   0.9703  -0.3403
   0.5254  -0.5893   0.2908  -0.2379   0.3382   0.2459  -0.0578  -0.3890  -0.3386  -0.7701  -0.3973  -0.4425   0.6022   0.1820  -1.1100  -1.3551  -0.3871
   0.1385  -0.2925  -0.2734   0.8872  -0.2682  -0.6636  -0.1930  -0.8020   0.7858   0.8197  -0.4019   0.7668   0.7356   1.1519  -0.5508  -0.3847  -0.4106
   0.4717   0.2169  -1.1433   0.3895   0.0704   0.5953  -1.0275   0.0972  -1.0610  -0.8562  -0.1127   0.6508   0.7951   0.1087  -0.1403   0.8032   0.5686
  -0.2181  -0.5803  -0.3279   1.1851   0.7595  -1.2546  -1.2873  -0.2081  -0.5685   0.1329   0.1858   0.3483  -0.1639  -0.8984  -1.8151   0.1218   0.5366
   0.2326  -0.7423   1.2003   1.0107   0.4384  -0.8002  -0.2511   0.1860   1.1103  -0.4298   0.5434   0.2622  -0.0818  -0.1625   0.0128   0.2419   0.2869
   0.1379  -0.4469  -0.1107   0.1856  -0.0529   0.7211   0.2442   0.1188  -0.8652   0.4466  -0.3026   0.6686   0.1748  -0.7917   0.9475  -0.4548  -0.3592
   0.2514  -0.5520   0.7711  -0.9921  -0.2587  -0.6463   0.1762  -0.6853   1.0900  -0.3452   0.2471  -1.0011   0.2951  -0.3222   0.0218   0.4994   0.4937
   0.0880  -0.2838   0.5599  -0.2891   0.0806  -1.2644  -0.2714   0.7796  -0.3285   0.1964   0.4696   1.0585  -0.6626  -0.4772  -0.9552   0.7334  -0.7194
   0.8940  -0.5855   0.1489   0.8109  -0.4931  -0.8388   0.6731   1.2263   0.7731   0.0769   0.4391  -0.1417  -0.5971  -0.4004   0.8145   0.0747   0.5863
  -0.4687   0.4430   0.6919  -0.1631   0.7499  -1.3810   0.2003  -0.0806   0.2984  -0.1835   0.0051   0.2559   0.4268   0.3286  -1.6231  -0.9245  -0.0613
   0.5243  -0.5741  -0.5675   0.7508  -0.8668   0.3054  -0.5327   0.7740  -0.2706   0.5321   0.3220  -0.3501  -0.2725   0.7258   0.5128  -0.0181  -0.4292
  -0.8159  -0.3515   0.0260  -0.8397   0.9316   1.5079   0.5088   2.4127   0.9344  -0.5904   0.9191   1.5791   1.0231   2.3365  -0.5209

