  -0.4584  -0.5223   0.7595  -0.6636  -0.7154   0.0390  -1.0243  -0.6597   0.2359   0.8205  -0.0019  -0.3102  -0.6556  -0.9390   0.0418  -0.3204  -0.0099
   0.7084  -0.1469   0.8474  -0.8897  -0.5208   0.7884  -0.4156  -0.4725  -0.1461   1.0151   1.0128  -0.3980   1.0428   0.6293   0.5177  -0.5184   0.0212
   0.0471   0.8025  -0.6060   0.3065   0.6761  -0.8590   0.7431  -0.6811  -0.5379   0.1315  -0.5214   0.4312  -0.2757   0.3675   0.5948   0.1437  -0.3859
   0.1801  -0.4094  -0.3009  -0.9861  -0.1809  -0.9492   0.7189  -0.7082  -0.1075  -0.9307   0.4102   0.6039  -0.2854   0.7578   0.5310   0.9754  -0.3508
   0.5421  -0.4908   0.2318  -0.2492   0.3596   0.2920  -0.0423  -0.3482  -0.4333  -0.7324  -0.2840  -0.4144   0.5209   0.2597  -1.0782  -1.2938  -0.3921
   0.0596  -0.1189  -0.3227   0.8689  -0.2425  -0.6256  -0.1443  -0.8052   0.7187   0.8008  -0.2703   0.7491   0.7803   1.0870  -0.4675  -0.4358  -0.3140
   0.4460   0.2069  -1.0904   0.3711   0.0441   0.6572  -1.0042   0.0911  -1.0306  -0.8622  -0.1200   0.6215   0.7860   0.1420  -0.1178   0.8135   0.5755
  -0.2427  -0.6080  -0.2792   1.0744   0.6816  -1.0696  -1.2097  -0.2894  -0.4939   0.1883   0.0521   0.2077  -0.2382  -0.7850  -1.7173   0.1490   0.5058
   0.2175  -0.7873   1.1478   0.9432   0.3737  -0.7807  -0.3499   0.1722   0.9970  -0.4815   0.5958   0.1765  -0.1368  -0.1766   0.0549   0.1793   0.2369
   0.1144  -0.4398  -0.0360   0.2093  -0.0435   0.7464   0.2673   0.1540  -0.8272   0.4044  -0.2401   0.6960   0.1767  -0.7357   0.9206  -0.4806  -0.2751
   0.2793  -0.5152   0.7264  -0.9128  -0.3400  -0.6242   0.1381  -0.6273   1.0402  -0.3146   0.2863  -0.9768   0.2634  -0.3409   0.0681   0.5784   0.4347
   0.1357  -0.2902   0.5460  -0.2988  -0.0143  -1.1325  -0.2109   0.7464  -0.2637   0.1676   0.4611   1.0459  -0.6591  -0.4937  -0.9023   0.7268  -0.6854
   0.8963  -0.5298   0.1027   0.7995  -0.4903  -0.8184   0.7671   1.1441   0.6832   0.0649   0.5528  -0.2142  -0.4951  -0.4207   0.8169   0.0828   0.5900
  -0.3977   0.4330   0.6690  -0.1018   0.6599  -1.3142   0.2344  -0.0766   0.3288  -0.1650  -0.0057   0.2576   0.4026   0.2859  -1.5198  -0.8567  -0.0910
   0.4698  -0.4903  -0.5562   0.7714  -0.8294   0.2880  -0.5323   0.8142  -0.2961   0.5717   0.3486  -0.3569  -0.2425   0.7497   0.5062  -0.0219  -0.3848
  -0.6879  -0.2339   0.0057  -0.6458   0.7807   1.2255   0.4148   2.0859   0.6817  -0.4304   0.6709   1.3513   0.8398   2.0579  -0.3784

