  -0.4626  -0.5224   0.7442  -0.6655  -0.7100   0.0159  -0.9882  -0.7154   0.2342   0.8225  -0.0219  -0.3553  -0.6692  -0.8899   0.0318  -0.3302  -0.0198
   0.7025  -0.1270   0.8483  -0.8959  -0.4964   0.7850  -0.4079  -0.4654  -0.1500   1.0264   1.0201  -0.3775   1.0420   0.6305   0.5116  -0.5100   0.0276
   0.0470   0.8025  -0.6058   0.3060   0.6760  -0.8584   0.7433  -0.6814  -0.5375   0.1312  -0.5215   0.4306  -0.2759   0.3675   0.5956   0.1441  -0.3863
   0.1740  -0.4687  -0.2511  -0.9689  -0.2380  -0.9249   0.6882  -0.6931  -0.0614  -0.9376   0.3555   0.6332  -0.2687   0.7049   0.5224   0.9792  -0.3701
   0.5658  -0.4272   0.1883  -0.2577   0.3974   0.3066  -0.0106  -0.3361  -0.4832  -0.7036  -0.2191  -0.4000   0.5039   0.2939  -1.0658  -1.2375  -0.4046
  -0.0044  -0.0064  -0.3586   0.8620  -0.2410  -0.6076  -0.1331  -0.8038   0.6698   0.7823  -0.1903   0.7424   0.7998   1.0406  -0.4213  -0.5016  -0.2355
   0.4294   0.2110  -1.0583   0.3581   0.0412   0.6927  -0.9792   0.0856  -1.0120  -0.8702  -0.1110   0.6047   0.7855   0.1695  -0.1085   0.8164   0.5922
  -0.2401  -0.6306  -0.2511   1.0009   0.6267  -0.9330  -1.1438  -0.3470  -0.4462   0.2067  -0.0057   0.1099  -0.2662  -0.7044  -1.6638   0.1364   0.5266
   0.1892  -0.8043   1.0931   0.9118   0.3194  -0.7950  -0.4535   0.1758   0.9160  -0.5178   0.6132   0.1387  -0.1608  -0.2356   0.0757   0.1301   0.1861
   0.1011  -0.4471   0.0240   0.2237  -0.0526   0.7805   0.2834   0.1773  -0.7862   0.3830  -0.2204   0.7144   0.1741  -0.6997   0.9081  -0.4915  -0.2249
   0.2920  -0.4857   0.6846  -0.8700  -0.3689  -0.6377   0.1112  -0.5999   0.9998  -0.2945   0.3070  -0.9629   0.2543  -0.3676   0.0903   0.6205   0.3930
   0.1680  -0.3122   0.5499  -0.3125  -0.0757  -1.0431  -0.1696   0.7194  -0.2154   0.1329   0.4617   1.0465  -0.6758  -0.4861  -0.8795   0.7022  -0.6465
   0.9025  -0.4807   0.0664   0.7940  -0.4569  -0.8274   0.8323   1.0979   0.6246   0.0711   0.6241  -0.2436  -0.4096  -0.4586   0.8179   0.1069   0.5849
  -0.3422   0.4225   0.6408  -0.0641   0.6173  -1.2925   0.2417  -0.0670   0.3597  -0.1594  -0.0255   0.2618   0.3790   0.2535  -1.4512  -0.8062  -0.1247
   0.4399  -0.4545  -0.5524   0.7799  -0.8161   0.2759  -0.5378   0.8293  -0.3095   0.5884   0.3549  -0.3614  -0.2288   0.7564   0.5000  -0.0309  -0.3662
  -0.6132  -0.1705   0.0187  -0.5257   0.7026   1.0548   0.3727   1.8826   0.5450  -0.3709   0.4966   1.2160   0.7481   1.8927  -0.3096

