  -1.3201   0.1582   0.7227  -0.4995  -0.2238   0.2794  -0.1324  -0.3234   0.2289  -0.6473  -0.0165   2.1354  -0.6320  -1.0201  -0.9159   0.2479  -0.7013
  -2.6503  -0.0921   2.1844  -1.3423  -0.0815   0.8564   0.4559  -1.0069   0.8593  -1.2223  -0.2045   4.6968  -1.5651  -1.8681  -1.8309  -0.3869  -0.1896
  -1.8621  -0.6470   2.7284  -0.4883  -0.9805   1.7045   0.0013   0.2250   0.0384   0.1722   0.0046   0.1228  -0.4227   0.0879   0.4144  -0.0631   0.2871
  -0.4339   0.5304   0.3319   1.8109  -1.0075  -0.3831   0.2666   0.1579   0.0745   0.0663   0.2898   2.1079  -0.5789  -0.3111  -0.7866   0.4163   0.0149
  -2.0190   0.3178   1.8362  -0.5015   0.3039   0.3365   0.7539  -0.6250   1.2862  -1.0249  -0.1216   3.4069  -0.9553  -0.8544  -1.4762   0.3580  -0.2301
  -1.1558   0.1290   0.8300  -0.3707  -0.1055   0.2571   0.1102  -0.3119   0.4562  -0.6083  -0.0479   1.9975  -0.6213  -0.7288  -0.8537   0.2321  -0.4418
   0.3523  -0.1502  -0.8841  -1.7708   1.0703   0.0260  -0.3048  -0.3757  -0.2563   0.5266  -0.9689  -2.9012   0.8657   0.7151   0.6328  -0.5327  -0.1506
  -2.4568   0.4240   2.2495  -1.3544   1.2655   0.2794   0.1261   0.0626   0.4213  -0.1973  -0.0256   3.4058  -1.0139  -1.3037  -0.9064   0.4095  -0.2046
   2.8254  -0.9845  -2.6463  -0.0390   0.6432  -1.3928  -0.9223   0.1084  -0.5291  -0.1021  -0.1650  -2.7644   0.3749   0.8578   0.7103  -0.5304  -0.2875
   0.8954  -0.1745  -0.8323   0.2867  -0.2335  -0.1469  -0.3297   0.2281  -0.5528   0.4127   0.0376  -1.4775   0.4091   0.3613   0.6063  -0.1163   0.0005
   2.6119  -0.5832  -2.3431   1.4950  -1.3586  -0.4397  -0.2196  -0.0904  -0.6435   0.3178   0.0207  -3.8926   1.1953   1.2913   1.0934  -0.3959   0.0923
   1.1599   1.5300  -1.9265   0.7007  -1.4617   1.5178  -0.0520   0.8125  -0.2860   0.7340   0.3201  -0.9567   0.3999   0.4745   0.8381  -0.1797   0.9424
   2.3827  -0.5915  -2.0694   1.3992  -1.1025  -0.5836  -0.2429  -0.0355  -0.6751   0.3444   0.0323  -3.6046   1.1049   1.1786   1.0290  -0.3477   0.0728
   2.9743   0.2262  -3.1085   2.1999  -1.1512  -0.9292  -0.9977   1.1008  -1.0920   0.8189   0.3628  -5.2497   1.7393   1.6515   1.9729   0.8051  -0.7124
  -1.8154   0.3017   1.6410  -0.4561   0.3061   0.2568   0.6917  -0.5736   1.1240  -0.8915  -0.1026   2.9668  -0.7983  -0.7335  -1.3208   0.3109  -0.1963
   1.5595   3.1322  -7.9894   2.8915  -0.7600   0.8824  -3.2727   3.2556   4.9454   0.3359  -3.5932   7.2332  -3.3988  -6.7339  -0.9690

