  -0.4447  -0.5222   0.7962  -0.6584  -0.7251   0.0940  -1.0666  -0.5669   0.2412   0.8188   0.0449  -0.2410  -0.6234  -1.0147   0.0666  -0.2976   0.0177
   0.7159  -0.1781   0.8517  -0.8678  -0.5657   0.7920  -0.4263  -0.4812  -0.1367   1.0010   0.9980  -0.4280   1.0528   0.6274   0.5203  -0.5341   0.0176
   0.0473   0.8027  -0.6063   0.3088   0.6771  -0.8621   0.7408  -0.6786  -0.5407   0.1327  -0.5196   0.4341  -0.2737   0.3664   0.5914   0.1438  -0.3858
   0.1766  -0.3184  -0.3819  -1.0237  -0.1033  -0.9827   0.7528  -0.7356  -0.1785  -0.9306   0.4877   0.5616  -0.3183   0.8263   0.5443   0.9717  -0.3405
   0.5161  -0.5868   0.2980  -0.2301   0.3445   0.2321  -0.0597  -0.3866  -0.3344  -0.7691  -0.4020  -0.4403   0.6028   0.1874  -1.1176  -1.3592  -0.3826
   0.1395  -0.2887  -0.2761   0.8871  -0.2690  -0.6605  -0.1886  -0.8043   0.7834   0.8235  -0.4010   0.7661   0.7349   1.1500  -0.5455  -0.3817  -0.4115
   0.4661   0.2228  -1.1462   0.3991   0.0755   0.5780  -1.0319   0.0990  -1.0642  -0.8539  -0.1145   0.6613   0.7979   0.1044  -0.1518   0.8017   0.5675
  -0.2226  -0.5793  -0.3245   1.1852   0.7609  -1.2561  -1.2849  -0.2105  -0.5622   0.1310   0.1814   0.3507  -0.1667  -0.8951  -1.8178   0.1223   0.5362
   0.2315  -0.7415   1.2000   1.0116   0.4373  -0.8007  -0.2502   0.1844   1.1114  -0.4309   0.5428   0.2629  -0.0831  -0.1619   0.0121   0.2420   0.2862
   0.1375  -0.4437  -0.1081   0.1885  -0.0480   0.7186   0.2486   0.1198  -0.8645   0.4440  -0.2954   0.6713   0.1767  -0.7879   0.9444  -0.4553  -0.3535
   0.2486  -0.5530   0.7734  -0.9933  -0.2565  -0.6487   0.1752  -0.6858   1.0925  -0.3463   0.2442  -1.0010   0.2971  -0.3192   0.0153   0.4979   0.4937
   0.0842  -0.2810   0.5609  -0.2863   0.0799  -1.2665  -0.2711   0.7792  -0.3270   0.1966   0.4680   1.0608  -0.6638  -0.4762  -0.9574   0.7315  -0.7175
   0.8935  -0.5845   0.1475   0.8116  -0.4898  -0.8438   0.6737   1.2247   0.7732   0.0762   0.4387  -0.1421  -0.5996  -0.3984   0.8144   0.0739   0.5862
  -0.4710   0.4482   0.6914  -0.1679   0.7523  -1.3761   0.2053  -0.0830   0.3001  -0.1822   0.0046   0.2532   0.4253   0.3251  -1.6129  -0.9224  -0.0608
   0.5167  -0.5675  -0.5676   0.7556  -0.8626   0.2953  -0.5356   0.7757  -0.2727   0.5350   0.3200  -0.3507  -0.2679   0.7288   0.5045  -0.0206  -0.4279
  -0.8184  -0.3327   0.0327  -0.8378   0.9437   1.5055   0.5274   2.4149   0.9363  -0.5829   0.9260   1.5824   1.0253   2.3330  -0.5074

