  -0.4579  -0.5223   0.7594  -0.6634  -0.7156   0.0393  -1.0243  -0.6594   0.2357   0.8207  -0.0016  -0.3102  -0.6556  -0.9393   0.0425  -0.3204  -0.0096
   0.7072  -0.1443   0.8484  -0.8885  -0.5190   0.7877  -0.4148  -0.4710  -0.1465   1.0169   1.0136  -0.3947   1.0438   0.6297   0.5154  -0.5177   0.0229
   0.0475   0.8027  -0.6055   0.3067   0.6767  -0.8587   0.7436  -0.6806  -0.5376   0.1317  -0.5209   0.4313  -0.2751   0.3680   0.5948   0.1445  -0.3857
   0.1796  -0.4094  -0.3003  -0.9860  -0.1810  -0.9492   0.7187  -0.7081  -0.1073  -0.9306   0.4101   0.6043  -0.2853   0.7578   0.5307   0.9756  -0.3509
   0.5392  -0.4900   0.2339  -0.2470   0.3616   0.2879  -0.0427  -0.3478  -0.4322  -0.7324  -0.2851  -0.4138   0.5215   0.2608  -1.0804  -1.2951  -0.3908
   0.0602  -0.1179  -0.3236   0.8690  -0.2427  -0.6248  -0.1430  -0.8059   0.7180   0.8016  -0.2699   0.7485   0.7798   1.0870  -0.4658  -0.4353  -0.3139
   0.4440   0.2085  -1.0912   0.3736   0.0455   0.6522  -1.0055   0.0912  -1.0314  -0.8616  -0.1209   0.6241   0.7868   0.1406  -0.1212   0.8130   0.5748
  -0.2437  -0.6077  -0.2786   1.0744   0.6817  -1.0698  -1.2089  -0.2902  -0.4922   0.1879   0.0508   0.2082  -0.2388  -0.7841  -1.7180   0.1494   0.5054
   0.2172  -0.7870   1.1478   0.9435   0.3735  -0.7808  -0.3495   0.1718   0.9974  -0.4817   0.5956   0.1767  -0.1370  -0.1764   0.0548   0.1794   0.2368
   0.1143  -0.4391  -0.0349   0.2101  -0.0425   0.7462   0.2684   0.1546  -0.8266   0.4040  -0.2387   0.6967   0.1774  -0.7347   0.9198  -0.4806  -0.2735
   0.2782  -0.5153   0.7271  -0.9131  -0.3395  -0.6250   0.1378  -0.6275   1.0407  -0.3148   0.2854  -0.9767   0.2640  -0.3402   0.0661   0.5780   0.4346
   0.1347  -0.2896   0.5464  -0.2979  -0.0144  -1.1332  -0.2106   0.7462  -0.2633   0.1678   0.4605   1.0465  -0.6593  -0.4934  -0.9029   0.7266  -0.6851
   0.8961  -0.5296   0.1025   0.7997  -0.4891  -0.8199   0.7673   1.1437   0.6832   0.0649   0.5526  -0.2144  -0.4954  -0.4202   0.8169   0.0827   0.5900
  -0.3980   0.4334   0.6693  -0.1030   0.6604  -1.3131   0.2352  -0.0769   0.3297  -0.1649  -0.0063   0.2572   0.4018   0.2845  -1.5167  -0.8568  -0.0905
   0.4676  -0.4889  -0.5563   0.7725  -0.8286   0.2851  -0.5335   0.8145  -0.2968   0.5722   0.3478  -0.3570  -0.2414   0.7502   0.5039  -0.0229  -0.3847
  -0.6888  -0.2300   0.0078  -0.6455   0.7844   1.2249   0.4198   2.0866   0.6823  -0.4287   0.6726   1.3525   0.8404   2.0567  -0.3752

