  -0.4069  -0.5125   0.8706  -0.6585  -0.7723   0.2632  -0.9578  -0.5537   0.3471   0.8275   0.0522  -0.2862  -0.6744  -0.9230   0.1931  -0.3098   0.1519
   0.7494  -0.2474   0.9244  -0.6114  -0.7658   0.7725  -0.4120  -0.4588  -0.1212   1.0183   1.0021  -0.4652   1.2143   0.6294   0.4307  -0.5764   0.0966
   0.0674   0.8370  -0.5818   0.3835   0.7631  -0.9439   0.6978  -0.5568  -0.5544   0.1517  -0.4460   0.5268  -0.1750   0.3846   0.4605   0.2131  -0.3763
   0.1332  -0.2503  -0.3156  -1.0424  -0.0402  -0.9361   0.7966  -0.6884  -0.1814  -0.8806   0.5317   0.6484  -0.2908   0.8791   0.4683   1.1138  -0.3915
   0.3872  -0.5325   0.2489  -0.0799   0.6233  -0.3205  -0.1399  -0.4301  -0.3326  -0.8851  -0.4114  -0.3121   0.6542   0.3319  -1.5654  -1.5241  -0.3413
   0.3837  -0.3092  -0.3650   1.1800  -0.0088  -1.0789  -0.2299  -0.6282   0.8361   0.9334  -0.4288   0.8549   1.2158   0.8695  -0.6998  -0.2153  -0.4431
   0.3710   0.2895  -1.1965   0.4841   0.0731   0.4168  -1.0523   0.0407  -0.9944  -0.9509  -0.1660   0.7215   0.8112   0.1335  -0.3331   0.6324   0.6581
  -0.3116  -0.8671   0.0850   1.4318   0.9037  -1.6128  -1.2749  -0.1879  -0.3184   0.0618   0.0395   0.4334   0.0111  -0.7229  -2.2180  -0.1211   0.8122
   0.3494  -0.7130   1.2112   1.3105   0.5474  -1.0522  -0.3249   0.4166   1.2918  -0.4102   0.4991   0.4159   0.2314  -0.3375  -0.1224   0.2577   0.4280
   0.0988  -0.2635  -0.1115   0.1447  -0.0431   0.8957   0.6126  -0.1062  -0.8330   0.5053  -0.2501   0.6689  -0.0713  -0.5143   1.0594  -0.3565  -0.3141
   0.1395  -0.4469   0.6269  -0.9013  -0.1858  -0.9608   0.0458  -0.7059   1.0540  -0.3621   0.1490  -0.9367   0.3082  -0.3109  -0.2177   0.5077   0.3345
   0.1640  -0.5989   0.7754  -0.3747   0.4771  -1.5989  -0.3493   0.8339  -0.1591   0.1450   0.3282   1.1935  -0.7592  -0.2794  -1.2151   0.7155  -0.7250
   0.8853  -0.7341   0.1496   0.8808  -0.3318  -1.2266   0.4986   1.2443   0.7861   0.0548   0.2915  -0.1408  -0.5806  -0.5584   0.7986   0.0047   0.4998
  -0.4267   0.4954   0.5781   0.1124   1.1150  -2.0410   0.0079   0.0925   0.1433  -0.2716   0.2288   0.4290   0.8264   0.0499  -1.9365  -0.9010  -0.1041
   0.6035  -0.7887  -0.6440   0.7541  -0.9613   0.1846  -0.5290   0.5583  -0.1389   0.4758   0.0346  -0.4031  -0.4063   0.7611   0.4523  -0.1191  -0.5402
  -0.6781  -1.0974   0.1236  -0.8851   0.8208   1.8628   0.7100   3.0080   1.7154  -1.0184   0.7089   2.2832   1.0578   3.0699  -0.8362

