  -0.5233  -0.4941   0.7014  -0.7686  -0.6793   0.0131  -0.9193  -0.8595   0.2292   0.7869  -0.0565  -0.5306  -0.6656  -0.7167  -0.0449  -0.3356  -0.0896
  -1.1162   1.1675   1.1271  -1.7101   0.3873   0.4701  -1.6678   0.5491  -0.9628   1.2907   1.3233  -1.2562   0.9439   0.9198   0.9537  -1.5477   0.8199
   0.2345   0.1891  -0.4691   0.1909   0.4460  -0.8023   0.8155  -1.0426  -0.8622   0.2626  -0.6172   0.4346  -0.2767  -0.0245   0.6954   0.2430  -0.7742
   0.2638  -0.7632  -0.2079  -0.7695  -0.6617  -0.8622   0.5995  -0.7659   0.2002  -0.9586  -0.0466   0.8220  -0.2229   0.5337   0.2975   0.8898  -0.4422
   0.3895  -0.2566  -0.1112  -0.3896  -0.0068   0.5375   0.3739  -1.0258  -0.6341  -0.9873  -0.0896  -0.5848   0.3008   0.0097  -0.6991  -1.1865  -0.7609
   0.3210  -0.1189  -0.4790   0.8603  -0.7245  -0.0299   0.2195  -1.0640   0.9850   0.6586  -0.2893   0.9860   0.7570   0.5653  -0.0543  -0.3227  -0.3220
   0.0853   0.2669  -0.9584   0.1139  -0.1865   0.9762  -0.9341  -0.1478  -1.1039  -1.0067  -0.0709   0.6235   0.6455   0.1130  -0.1191   1.0453   0.1749
   0.4765  -1.1293  -0.3679   0.6936   0.1751  -0.0731  -0.8411  -0.5488  -0.3497   0.4073  -0.2019  -0.1563  -0.6831  -0.4626  -1.1216   0.3333   0.4307
   0.2414  -0.9646   0.9754   0.8153   0.0628  -0.6676  -0.6574   0.1538   0.8562  -0.5700   0.4993   0.0939  -0.3955  -0.4268   0.3206   0.0806   0.0098
   0.2056  -0.4717   0.1643   0.3728   0.1166   0.6823   0.1101   0.5707  -0.8110   0.2964   0.1111   0.9456   0.3084  -0.5814   0.6444  -0.7073   0.2111
   0.1733  -0.0637   0.5318  -0.2839  -0.6387  -0.8035   0.3993  -0.7375   1.0934  -0.2139   0.2833  -1.2419   0.2488  -0.2848   0.4426   0.9155   0.2486
   0.3868  -0.2745   0.1188  -0.5985  -0.4586  -0.5487  -0.6978   1.0729   0.1680  -0.0478   0.0845   1.1241  -1.0213  -0.6557  -0.6167   0.5035  -0.6224
   1.0357  -0.4873  -0.3267   0.7854  -0.8838  -0.6583   1.3091   0.3546   0.9629  -0.1109   0.2013   0.3718  -0.6495  -0.8498   0.5670   0.8017  -0.3763
  -0.0714   0.3593   0.5405  -0.3745   0.4759  -0.7334   0.6282  -0.3463   1.0051  -0.3163  -0.4067   0.2556   0.0538   0.1494  -0.9084  -0.7730  -0.0505
   0.2789  -0.3416  -0.4992   0.7685  -0.8049   0.2812  -0.5749   0.8715  -0.4130   0.6549   0.3970  -0.3818  -0.1740   0.7265   0.5006  -0.0740  -0.3179
  -0.1374   3.6633   0.9262  -0.4140   0.7346   1.1622   0.7617   0.7188   0.2155  -0.7896   1.2011   1.6937   1.4927   0.5835  -0.1389

