  -0.5043  -0.5054   0.7197  -0.7485  -0.6818   0.0217  -0.9102  -0.8425   0.2527   0.7829  -0.0498  -0.5016  -0.6746  -0.7149  -0.0405  -0.3106  -0.0884
  -1.6318   1.4686   1.3859  -2.2019   0.6451   0.7485  -1.9252   0.8509  -1.4168   1.5536   1.5587  -1.8160   1.1630   1.1086   1.1500  -1.9211   1.2378
   0.5175  -0.2192  -0.3983   0.2851   0.3178  -0.8229   0.8773  -1.1590  -1.1291   0.3587  -0.5010   0.4070  -0.1201  -0.2822   0.7696   0.3739  -0.9597
   0.2190  -0.7531  -0.1987  -0.6830  -0.7407  -0.8951   0.5877  -0.7796   0.2829  -0.9716  -0.1417   0.9400  -0.2457   0.5079   0.2027   0.9199  -0.4978
   0.1075  -0.1326  -0.1532  -0.5366   0.0045   0.4731   0.5592  -1.4110  -0.8100  -1.1534   0.0523  -0.6247   0.2453  -0.0072  -0.7867  -1.4739  -0.6735
   0.8164  -0.4259  -0.4532   1.1652  -0.6315  -0.2136   0.4027  -1.0330   1.4075   0.2681  -0.1072   1.4318   0.6950   0.4149  -0.0736   0.2196  -0.6502
  -0.2271   0.4916  -0.9890  -0.0198  -0.2264   1.0316  -1.0030  -0.1972  -1.2525  -1.1239   0.0766   0.5219   0.7287   0.1251  -0.2311   0.9845   0.1174
   0.3200  -1.0491  -0.4555   0.6991   0.0449  -0.1123  -0.9873  -0.5664  -0.2708   0.4549  -0.4921  -0.1869  -0.6356  -0.4382  -1.3266   0.1117   0.4884
   0.2652  -0.9772   0.9245   0.7565   0.0357  -0.6214  -0.6960   0.1528   0.9690  -0.5657   0.3425   0.0830  -0.4409  -0.4008   0.3113   0.0045   0.0463
   0.3572  -0.4773   0.1440   0.3759   0.2444   0.6771   0.1128   0.6938  -0.8118   0.2911   0.2431   1.0643   0.3331  -0.5052   0.5506  -0.6786   0.3082
   0.0736   0.0165   0.4024  -0.2054  -0.8140  -0.8556   0.3935  -0.8806   1.1578  -0.3542   0.2103  -1.3957   0.2591  -0.3761   0.5284   0.7179   0.2973
   0.6060  -0.2669  -0.1237  -0.4333  -0.5730  -0.6152  -1.0441   1.4036   0.3958  -0.1910  -0.0158   1.1570  -1.0205  -0.6784  -0.6433   0.4671  -0.6018
   1.2862  -0.5508  -0.4783   1.0420  -0.9052  -0.8580   1.6710   0.0282   1.4504  -0.2308  -0.1309   1.0005  -0.7906  -0.6960  -0.0390   1.1731  -0.7124
  -0.0325   0.3029   0.5299  -0.3455   0.5039  -0.8183   0.5816  -0.3277   0.8540  -0.2844  -0.3155   0.2288   0.1039   0.1265  -0.9368  -0.8965   0.0449
  -0.0469  -0.1284  -0.4473   0.5033  -0.6180   0.2987  -0.4865   0.7224  -0.7913   0.8201   0.5493  -0.5009  -0.1572   0.6692   0.5994  -0.2707  -0.1821
   0.1725   5.9464   1.4268  -0.3213   1.0729   1.9986   1.0139   1.0785   0.2562  -1.1816   1.3567   1.9511   2.5933   0.3425  -0.4861

