  -0.5218  -0.4855   0.7056  -0.7722  -0.6821   0.0339  -0.9112  -0.8533   0.2275   0.8000  -0.0535  -0.5363  -0.6625  -0.7102  -0.0343  -0.3312  -0.0795
  -1.3172   1.2826   1.2205  -1.8958   0.4887   0.5619  -1.7722   0.6610  -1.1449   1.3981   1.4055  -1.4539   0.9927   0.9723   1.0576  -1.6877   0.9675
   0.3205   0.0283  -0.4351   0.2124   0.4301  -0.8488   0.7465  -1.0144  -0.9690   0.2802  -0.5688   0.4478  -0.2323  -0.1213   0.6939   0.2641  -0.8362
   0.3000  -0.7660  -0.2097  -0.7043  -0.6869  -0.8706   0.6187  -0.7535   0.2630  -0.9580  -0.0783   0.8547  -0.2016   0.5415   0.2675   0.9348  -0.4556
   0.3950  -0.2504  -0.1683  -0.4165  -0.0497   0.5619   0.3486  -1.0459  -0.6220  -1.0750  -0.0595  -0.5544   0.2589  -0.0310  -0.6923  -1.2388  -0.7539
   0.4543  -0.2569  -0.4262   0.9399  -0.7349  -0.0510   0.2578  -1.0542   1.0829   0.5439  -0.2245   1.1066   0.7856   0.5091  -0.0992  -0.2063  -0.3903
  -0.0206   0.3337  -0.9583   0.0524  -0.1931   1.0055  -0.9398  -0.1810  -1.1405  -1.0591  -0.0208   0.6098   0.6455   0.1232  -0.1546   1.0281   0.1532
   0.4604  -1.1382  -0.3891   0.7056   0.1521  -0.1082  -0.8806  -0.5554  -0.3645   0.4206  -0.2464  -0.1128  -0.6779  -0.5057  -1.1733   0.2824   0.4355
   0.2562  -0.9774   0.9713   0.8064   0.0643  -0.6623  -0.6629   0.1572   0.8609  -0.5532   0.4758   0.0943  -0.4082  -0.4204   0.3245   0.0612   0.0271
   0.2403  -0.4714   0.1660   0.3880   0.1612   0.6592   0.1233   0.5942  -0.8053   0.2956   0.1430   0.9906   0.3097  -0.5583   0.6118  -0.6877   0.2282
   0.2135  -0.0033   0.4349  -0.1751  -0.6957  -0.8516   0.4058  -0.7403   1.1349  -0.2199   0.2515  -1.3293   0.2944  -0.2527   0.4561   0.9170   0.2508
   0.4126  -0.2370   0.0441  -0.5585  -0.4973  -0.5615  -0.7735   1.1372   0.2205  -0.0426   0.0152   1.1143  -1.0230  -0.6634  -0.6088   0.4441  -0.5746
   1.1306  -0.5448  -0.3924   0.8524  -0.8661  -0.7714   1.5048   0.1306   1.2402  -0.2069  -0.0082   0.7015  -0.7153  -0.7133   0.1382   1.0133  -0.6163
  -0.0851   0.3677   0.5291  -0.4145   0.4869  -0.7211   0.6252  -0.3600   1.0251  -0.3661  -0.3936   0.2665   0.0328   0.1564  -0.9220  -0.7937  -0.0466
   0.2794  -0.3306  -0.4958   0.7574  -0.7891   0.2913  -0.5574   0.8690  -0.4363   0.6791   0.4110  -0.3893  -0.1619   0.7266   0.5108  -0.0648  -0.3123
  -0.0653   4.5665   1.0604  -0.4391   0.8832   1.3658   0.9560   0.8838   0.2141  -0.8915   1.3139   1.7930   2.0675   0.6634  -0.1476

