   0.7218  -2.2031  -2.2742   0.5330  -2.6539  -1.6115  -0.2395  -3.5085   0.9937  -2.0624  -2.6825   0.4403  -2.8827  -1.5718   0.2590  -0.7452  -3.0061
   3.7706   2.9080   1.1592   2.9740   2.2290   2.6436  -0.1244   7.9848   6.1086   1.5117   0.2161   4.6965  -2.4415   1.8165   3.7711   6.2886   1.5750
   0.5651  -0.2300  -0.1597   0.4803  -0.1209  -0.1845   0.5640  -0.3940   0.4924  -0.1687  -0.1359   0.5639  -0.0745  -0.2180  -0.0835   0.4694  -0.2930
   2.9082   2.0229   1.0083   2.4478   1.5362   1.9650   1.4302   4.5225   4.2546   1.2051   0.4752   2.6669  -1.0646   1.6023   2.7510   4.2958   1.6504
   1.0579   0.6473   0.3394   0.9320   0.4728   0.6492   0.5850   1.4529   1.5765   0.3463   0.1238   0.8635  -0.4300   0.5816   1.0428   1.4043   0.6410
   0.4875  -0.1946  -0.1461   0.4548  -0.1883  -0.1211   0.3845  -0.2508   0.5564  -0.1774  -0.2213   0.4932  -0.2094  -0.1518   0.0108   0.4286  -0.2763
   3.5405  -2.0518  -2.8784   2.7091  -2.8377  -1.2556   1.8187  -3.2339   4.0960  -2.2813  -3.2027   3.2723  -4.1836  -1.5773   1.0788   1.8233  -3.2127
  -2.1346  -1.3104  -0.3999  -1.6571  -0.9007  -1.2781  -0.1778  -3.6610  -3.5868  -0.5044   0.2446  -2.1490   1.8317  -1.1424  -2.3841  -2.9953  -0.8421
   0.6105   1.0748   1.1565   0.5924   1.2515   1.0194   1.2599   1.6057   0.4568   1.1676   1.2224   0.5524   1.2775   0.8496   0.1755   1.6119   1.2511
   0.5204   1.1159   1.1975   0.5227   1.3030   1.0275   1.1760   1.6699   0.3896   1.1991   1.2722   0.4765   1.3482   0.8783   0.1379   1.5107   1.3244
   -6.4935   -8.2311    2.1097   -2.8913   -1.0967    1.4157  -10.8029    3.6858    2.4659    2.6270

