  -0.5225  -0.4876   0.7057  -0.7701  -0.6812   0.0281  -0.9127  -0.8544   0.2285   0.7976  -0.0547  -0.5334  -0.6635  -0.7119  -0.0373  -0.3321  -0.0814
  -1.3193   1.2828   1.2217  -1.8983   0.4898   0.5627  -1.7737   0.6620  -1.1471   1.3989   1.4062  -1.4563   0.9933   0.9741   1.0570  -1.6906   0.9698
   0.3239   0.0238  -0.4328   0.2172   0.4293  -0.8517   0.7460  -1.0129  -0.9726   0.2831  -0.5672   0.4486  -0.2292  -0.1236   0.6933   0.2666  -0.8376
   0.3101  -0.7702  -0.2110  -0.6946  -0.6944  -0.8682   0.6232  -0.7534   0.2755  -0.9559  -0.0884   0.8613  -0.1984   0.5385   0.2651   0.9421  -0.4583
   0.4050  -0.2534  -0.1741  -0.4162  -0.0541   0.5672   0.3430  -1.0391  -0.6174  -1.0768  -0.0610  -0.5513   0.2596  -0.0302  -0.6957  -1.2364  -0.7551
   0.4601  -0.2620  -0.4233   0.9440  -0.7331  -0.0533   0.2604  -1.0532   1.0898   0.5372  -0.2210   1.1138   0.7844   0.5084  -0.1010  -0.1964  -0.3967
  -0.0138   0.3295  -0.9604   0.0550  -0.1946   1.0049  -0.9391  -0.1812  -1.1394  -1.0581  -0.0225   0.6095   0.6442   0.1250  -0.1543   1.0269   0.1549
   0.4689  -1.1378  -0.3958   0.6985   0.1548  -0.1017  -0.8755  -0.5583  -0.3645   0.4157  -0.2394  -0.1173  -0.6831  -0.5006  -1.1666   0.2861   0.4339
   0.2601  -0.9783   0.9699   0.8064   0.0646  -0.6611  -0.6616   0.1575   0.8623  -0.5538   0.4764   0.0949  -0.4086  -0.4196   0.3249   0.0633   0.0266
   0.2435  -0.4723   0.1645   0.3887   0.1621   0.6584   0.1215   0.5968  -0.8059   0.2972   0.1427   0.9925   0.3100  -0.5571   0.6090  -0.6898   0.2310
   0.2101  -0.0023   0.4360  -0.1732  -0.6962  -0.8543   0.4049  -0.7406   1.1339  -0.2196   0.2510  -1.3272   0.2927  -0.2541   0.4557   0.9164   0.2501
   0.4108  -0.2367   0.0446  -0.5542  -0.4982  -0.5658  -0.7749   1.1378   0.2185  -0.0394   0.0132   1.1153  -1.0224  -0.6644  -0.6105   0.4435  -0.5748
   1.1293  -0.5447  -0.3917   0.8522  -0.8669  -0.7708   1.5021   0.1328   1.2362  -0.2065  -0.0052   0.6994  -0.7163  -0.7142   0.1417   1.0102  -0.6137
  -0.0872   0.3687   0.5294  -0.4124   0.4862  -0.7232   0.6226  -0.3581   1.0232  -0.3644  -0.3941   0.2675   0.0344   0.1543  -0.9233  -0.7936  -0.0474
   0.2859  -0.3327  -0.4985   0.7547  -0.7857   0.2923  -0.5554   0.8686  -0.4381   0.6798   0.4137  -0.3918  -0.1609   0.7269   0.5136  -0.0624  -0.3130
  -0.0541   4.5646   1.0676  -0.4571   0.8829   1.3800   0.9502   0.8666   0.2153  -0.8983   1.3123   1.7986   2.0573   0.6605  -0.1527

