  -0.5235  -0.4945   0.7015  -0.7680  -0.6791   0.0119  -0.9195  -0.8597   0.2294   0.7866  -0.0568  -0.5299  -0.6658  -0.7171  -0.0454  -0.3358  -0.0898
  -1.1169   1.1677   1.1274  -1.7108   0.3877   0.4703  -1.6682   0.5494  -0.9636   1.2912   1.3236  -1.2567   0.9440   0.9203   0.9536  -1.5484   0.8206
   0.2352   0.1878  -0.4685   0.1916   0.4459  -0.8030   0.8153  -1.0425  -0.8631   0.2632  -0.6169   0.4348  -0.2760  -0.0253   0.6952   0.2436  -0.7749
   0.2662  -0.7645  -0.2083  -0.7674  -0.6638  -0.8615   0.6004  -0.7662   0.2031  -0.9580  -0.0493   0.8236  -0.2223   0.5328   0.2970   0.8912  -0.4429
   0.3926  -0.2579  -0.1126  -0.3896  -0.0077   0.5388   0.3723  -1.0237  -0.6330  -0.9878  -0.0898  -0.5838   0.3010   0.0100  -0.7002  -1.1855  -0.7614
   0.3220  -0.1204  -0.4780   0.8611  -0.7248  -0.0298   0.2201  -1.0640   0.9863   0.6575  -0.2890   0.9875   0.7573   0.5647  -0.0550  -0.3209  -0.3233
   0.0872   0.2656  -0.9589   0.1146  -0.1866   0.9759  -0.9341  -0.1476  -1.1039  -1.0062  -0.0712   0.6230   0.6454   0.1135  -0.1188   1.0448   0.1756
   0.4793  -1.1286  -0.3701   0.6914   0.1763  -0.0708  -0.8398  -0.5487  -0.3493   0.4061  -0.1997  -0.1578  -0.6844  -0.4604  -1.1196   0.3343   0.4310
   0.2426  -0.9647   0.9750   0.8154   0.0629  -0.6673  -0.6570   0.1541   0.8566  -0.5702   0.4997   0.0942  -0.3956  -0.4265   0.3207   0.0813   0.0097
   0.2064  -0.4720   0.1640   0.3731   0.1169   0.6820   0.1097   0.5713  -0.8111   0.2966   0.1113   0.9461   0.3085  -0.5811   0.6438  -0.7080   0.2120
   0.1732  -0.0638   0.5318  -0.2832  -0.6388  -0.8042   0.3992  -0.7376   1.0928  -0.2136   0.2834  -1.2416   0.2488  -0.2852   0.4425   0.9153   0.2486
   0.3868  -0.2746   0.1187  -0.5973  -0.4590  -0.5498  -0.6982   1.0732   0.1675  -0.0471   0.0840   1.1246  -1.0211  -0.6561  -0.6171   0.5031  -0.6223
   1.0359  -0.4877  -0.3265   0.7856  -0.8841  -0.6584   1.3083   0.3553   0.9621  -0.1111   0.2023   0.3716  -0.6493  -0.8499   0.5670   0.8010  -0.3757
  -0.0721   0.3596   0.5406  -0.3741   0.4758  -0.7340   0.6275  -0.3459   1.0044  -0.3160  -0.4066   0.2557   0.0542   0.1489  -0.9088  -0.7733  -0.0506
   0.2807  -0.3423  -0.4999   0.7678  -0.8041   0.2813  -0.5744   0.8714  -0.4133   0.6549   0.3976  -0.3824  -0.1738   0.7266   0.5013  -0.0734  -0.3182
  -0.1348   3.6628   0.9278  -0.4178   0.7340   1.1652   0.7599   0.7133   0.2158  -0.7914   1.2007   1.6955   1.4908   0.5827  -0.1397

