  -0.5072  -0.5130   0.7230  -0.7341  -0.6765  -0.0054  -0.9133  -0.8467   0.2562   0.7773  -0.0551  -0.4868  -0.6772  -0.7233  -0.0517  -0.3146  -0.0918
  -1.6405   1.4689   1.3925  -2.2077   0.6489   0.7487  -1.9360   0.8599  -1.4216   1.5549   1.5605  -1.8321   1.1622   1.1200   1.1538  -1.9278   1.2427
   0.5073  -0.2140  -0.3873   0.3123   0.3087  -0.8350   0.8809  -1.1566  -1.1336   0.3671  -0.4989   0.4072  -0.1104  -0.2892   0.7727   0.3803  -0.9601
   0.2902  -0.7653  -0.2023  -0.6154  -0.7612  -0.8869   0.6315  -0.7682   0.3549  -0.9646  -0.1654   0.9900  -0.2250   0.5031   0.1919   0.9897  -0.5124
   0.1348  -0.1403  -0.1755  -0.5426  -0.0120   0.4929   0.5243  -1.3788  -0.7890  -1.1665   0.0417  -0.6144   0.2394  -0.0132  -0.7878  -1.4613  -0.6887
   0.8249  -0.4277  -0.4522   1.1732  -0.6299  -0.2154   0.4150  -1.0376   1.4245   0.2562  -0.1045   1.4372   0.6911   0.4157  -0.0680   0.2359  -0.6587
  -0.2091   0.4804  -0.9977  -0.0165  -0.2351   1.0352  -0.9989  -0.2031  -1.2311  -1.1298   0.0593   0.5188   0.7167   0.1376  -0.2303   0.9724   0.1277
   0.3696  -1.0538  -0.4805   0.6936   0.0503  -0.0921  -0.9666  -0.5671  -0.2491   0.4328  -0.4718  -0.1825  -0.6442  -0.4343  -1.3064   0.1416   0.4786
   0.2923  -0.9833   0.9109   0.7536   0.0327  -0.6082  -0.6870   0.1510   0.9868  -0.5673   0.3337   0.0879  -0.4488  -0.3929   0.3137   0.0149   0.0431
   0.3805  -0.4832   0.1286   0.3646   0.2515   0.6833   0.1059   0.7026  -0.8202   0.2976   0.2469   1.0703   0.3261  -0.4982   0.5467  -0.6856   0.3172
   0.0713   0.0269   0.4045  -0.1936  -0.8099  -0.8613   0.3962  -0.8730   1.1708  -0.3602   0.2136  -1.3910   0.2561  -0.3595   0.5203   0.7429   0.2825
   0.5801  -0.2611  -0.1245  -0.4767  -0.5571  -0.6086  -1.0229   1.3616   0.3486  -0.1820   0.0015   1.1705  -1.0440  -0.6813  -0.6513   0.4633  -0.6188
   1.2863  -0.5523  -0.4801   1.0376  -0.9056  -0.8565   1.6637   0.0322   1.4474  -0.2331  -0.1287   1.0035  -0.7930  -0.6947  -0.0441   1.1665  -0.7090
  -0.0500   0.3157   0.5442  -0.3350   0.5131  -0.8287   0.5668  -0.3034   0.8329  -0.2622  -0.3071   0.2240   0.1217   0.1273  -0.9411  -0.9031   0.0610
  -0.0067  -0.1319  -0.4722   0.4955  -0.6050   0.3054  -0.4749   0.7227  -0.7982   0.8129   0.5754  -0.5123  -0.1487   0.6673   0.6162  -0.2492  -0.1915
   0.2141   5.9326   1.4302  -0.4434   1.0739   2.0206   1.0062   1.0769   0.2776  -1.2040   1.3556   1.9361   2.5710   0.3210  -0.4907

