  -0.5242  -0.5066   0.6987  -0.7625  -0.6751  -0.0133  -0.9297  -0.8653   0.2339   0.7704  -0.0608  -0.5200  -0.6714  -0.7241  -0.0584  -0.3394  -0.1019
  -0.9121   1.0216   1.0542  -1.5519   0.2743   0.4103  -1.5687   0.4354  -0.7403   1.1670   1.2099  -1.0926   0.9001   0.8736   0.8656  -1.3834   0.6411
   0.1417   0.3624  -0.4953   0.1930   0.4580  -0.7622   0.8671  -1.0399  -0.7842   0.2761  -0.6545   0.4131  -0.3189   0.0832   0.7057   0.2135  -0.6905
   0.2394  -0.7472  -0.2040  -0.8163  -0.6267  -0.8548   0.5975  -0.7684   0.1491  -0.9589   0.0004   0.7975  -0.2312   0.5357   0.3240   0.8716  -0.4285
   0.3519  -0.2439  -0.0654  -0.3845   0.0092   0.5372   0.3763  -1.0072  -0.6640  -0.9118  -0.1143  -0.6089   0.3179   0.0448  -0.7063  -1.1895  -0.7368
   0.2053   0.0349  -0.5475   0.8520  -0.7000  -0.0765   0.1594  -1.0343   0.8747   0.7228  -0.2737   0.8979   0.7148   0.6178  -0.0069  -0.4440  -0.2312
   0.1228   0.2472  -0.9529   0.1544  -0.1838   0.9564  -0.9511  -0.1075  -1.1056  -0.9618  -0.0908   0.6007   0.6498   0.1112  -0.0755   1.0068   0.2368
   0.4578  -1.0784  -0.3667   0.6844   0.1836  -0.0390  -0.8319  -0.5245  -0.3622   0.4166  -0.1651  -0.2076  -0.6824  -0.4185  -1.0815   0.3388   0.4587
   0.2209  -0.9402   0.9769   0.8257   0.0621  -0.6721  -0.6617   0.1635   0.8543  -0.5852   0.5218   0.0876  -0.3843  -0.4271   0.3213   0.0897   0.0060
   0.1879  -0.4671   0.1784   0.3575   0.0785   0.7368   0.1223   0.5597  -0.7754   0.3058   0.0673   0.9100   0.3208  -0.5757   0.6632  -0.6712   0.1761
   0.1154  -0.1099   0.6094  -0.3918  -0.5963  -0.7646   0.3687  -0.7335   1.0085  -0.1968   0.3245  -1.1848   0.2276  -0.3520   0.4473   0.8414   0.2962
   0.3617  -0.3560   0.2057  -0.6513  -0.4220  -0.5522  -0.6427   0.9982   0.0553  -0.0344   0.1640   1.0867  -1.0060  -0.6520  -0.6179   0.5445  -0.6831
   0.9844  -0.4213  -0.2672   0.7983  -0.8691  -0.6117   1.1570   0.5809   0.7343  -0.0759   0.4691   0.1491  -0.4701  -0.9126   0.7472   0.6481  -0.1486
  -0.0778   0.3725   0.5487  -0.3365   0.4693  -0.7498   0.6258  -0.3288   0.9566  -0.2656  -0.3938   0.2276   0.0717   0.1451  -0.8789  -0.8099   0.0014
   0.2800  -0.3499  -0.5022   0.7749  -0.8147   0.2743  -0.5861   0.8725  -0.3938   0.6368   0.3856  -0.3745  -0.1833   0.7290   0.4898  -0.0752  -0.3270
  -0.1719   2.8998   0.8337  -0.4166   0.6177   0.9413   0.5805   0.4948   0.1568  -0.6331   1.0359   1.5416   1.0964   0.4563  -0.1072

