   0.3809   0.0779  -0.4054   0.0700   0.7886  -0.8011   0.2353  -0.2022   0.0725  -0.3342   0.2991  -0.1856   0.2943   0.4908  -0.5598  -0.3185   0.3647
   2.2724   2.9805  -1.7920  -1.3904   2.6052   2.2415   3.4591   0.0073   0.6530  -0.2353   3.0371  -2.1311   0.2355   3.6744   1.6994   1.2990   2.1732
   0.9204  -1.2930  -1.4413   0.0330   0.9101  -2.7966  -0.9296  -0.8990  -0.4010  -1.5213   0.0854  -0.1611   1.1013  -0.5484  -2.2217  -1.6320  -0.1960
  -0.3032   0.2842  -2.1009  -2.9591  -2.4798   3.3405  -1.7396  -0.3714  -1.0415  -1.4238   0.3407  -3.4347  -1.4377  -0.1348   2.8801  -0.7493  -1.3731
   0.5612   0.2543  -0.5701  -0.0691   0.9046  -0.5679   0.4829  -0.2316   0.1029  -0.3630   0.5380  -0.4886   0.2674   0.7451  -0.2484  -0.2838   0.5484
   0.1468   0.4038  -0.4062  -0.9302  -0.7503   1.8327  -0.0597   0.2091  -0.0312  -0.1480   0.3412  -1.3722  -1.0114   0.7469   1.7915   0.2373  -0.0798
   0.0715   0.1090  -0.2870  -1.3247  -2.0223   3.2247  -0.4143   0.3066  -0.2076  -0.1330   0.2266  -1.8240  -1.2237  -0.4899   3.4476   0.4696  -0.5695
  -0.0096  -0.2250   0.1734   0.9598   1.4129  -2.4172   0.0995  -0.1580   0.1131  -0.0492  -0.1198   1.2239   0.8786   0.2942  -2.4573  -0.4353   0.3834
   0.5546  -0.5898  -0.4158   0.8195   1.7260  -3.0049  -0.0272  -0.4392   0.1366  -0.6870   0.0807   0.6780   1.0217   0.2915  -2.4477  -0.8876   0.4441
  -0.2859  -0.5700   0.3919   0.5397  -0.1701  -0.8239  -0.3900  -0.0685  -0.0156   0.1610  -0.5931   0.8868   0.2925  -0.8238  -0.8227  -0.0888  -0.3732
   0.0358   0.4774  -0.2886  -1.2760  -1.6174   3.1611   0.1496   0.1113  -0.1236   0.1465   0.2337  -1.4339  -0.9065  -0.2657   2.8578   0.6073  -0.3458
  -0.7882   1.7271   1.7751   0.1449  -0.5156   3.0939   1.6031   1.1058   0.3423   1.9082   0.4760   0.2898  -0.9347   0.8640   2.4749   2.1631   0.5661
   0.0184   0.3170  -0.2040  -1.0416  -1.4294   2.6221   0.0166   0.1269  -0.1008   0.0967   0.1677  -1.2588  -0.8444  -0.2832   2.5281   0.4765  -0.3324
   0.1140   0.2441  -0.2821  -1.3140  -1.8405   3.2192  -0.0929   0.1759  -0.1119  -0.0379   0.2307  -1.7141  -1.0754  -0.4640   3.3214   0.5116  -0.4222
  -0.0352   0.0131   0.3419   1.3315   2.1242  -3.1416   0.6276  -0.3250   0.3851   0.1389  -0.2081   1.8145   1.2465   0.4359  -3.1857  -0.4351   0.7487
  -0.1094  -5.6596  -2.3665  -5.9898  -0.7406  -2.1415  -4.2756   2.7078   0.3370   1.1808  -3.0969   3.4801  -2.8134  -4.2179   3.9402

