   1.1488   0.1816  -1.1087   0.1171   0.9273  -0.8274   1.2264  -1.0214   0.5939  -0.9714   0.6033   0.0013   1.1522  -0.3979  -0.5274  -0.9035   1.1109
  -2.3391   0.3348   0.5502   2.9930  -0.6290  -3.8276  -1.4449  -0.0023   0.2354  -2.2436   0.5445   1.2832   1.7524  -1.3692  -3.1298  -2.2729   0.8003
   0.2252  -0.8971   0.2820   1.1072   1.0459  -2.5266  -0.3656  -0.0172   0.5983  -0.3372  -0.6551   1.1391   0.5035   0.0178  -2.0671  -0.7962   0.4110
  -0.0582   0.5409  -0.2702   0.4849  -0.2250  -0.0554   0.4320  -0.2233  -0.0096   0.1045   0.1198  -0.3641   0.1788   0.3815   0.0193  -0.5683   0.7836
   1.1555  -0.8029  -0.4273   0.7051   1.8507  -2.6266   0.6952  -0.7759   0.3360  -0.4759   0.0700   0.7679   1.2369  -0.0455  -2.0478  -0.6781   0.5964
   1.4137  -0.3448  -0.8523  -0.0397   1.0495  -0.8155   1.1840  -0.9722   0.6072  -0.7228   0.3290   0.0055   1.1068  -0.4122  -0.4930  -0.7966   1.0002
   0.0114   0.7291   0.3754   0.5919  -1.1868   1.7183   1.0451   0.0723   0.0512   1.3743  -0.3261  -1.6167  -0.2427   1.0190   1.9507  -1.1923   2.3069
  -0.1587   0.1688   0.6963   1.9063   1.5604  -2.7865   0.2047   0.4737   0.4324  -0.3331   0.5888   1.2879   1.8339   0.0071  -2.4573  -0.1100   0.8046
  -0.0232   1.0215  -0.5527  -1.1969  -1.6003   3.2597   0.6095  -0.1723  -0.4927   0.3093   0.6382  -1.6713  -0.5890  -0.0078   2.6978   0.8772  -0.4441
  -0.4211   0.6127  -0.3944  -1.0277  -0.5540   1.3965   0.0157  -0.2088  -0.9351   0.3309   0.4103  -0.9895  -0.5485   0.0595   1.2862   0.4216  -0.6288
   0.7773  -0.3578  -0.2281  -1.0604  -2.0292   3.2920   0.2920  -0.0962   0.2388   0.5472  -0.5852  -1.2760  -1.5447  -0.1116   3.1255   0.7013  -0.4991
  -0.2305   0.6919  -0.1727  -1.1982  -0.9976   2.4778   0.1916   0.0943  -0.4290   0.3482   0.3743  -1.0213  -0.5781  -0.1303   2.0108   0.7807  -0.4926
   0.1614   1.1215  -0.5755  -1.6547  -0.3305   2.6840   1.1512  -0.4439  -0.3554   0.9114   0.1313  -1.9676  -1.2923   1.3804   2.5731   1.8249  -1.1141
  -0.1267   1.3196  -0.6103  -1.0770  -1.6784   3.3656   0.7780  -0.1842  -0.6242   0.3022   0.9023  -1.7680  -0.5734   0.1440   2.8020   0.8795  -0.2963
  -0.1077   0.1407  -0.2017   1.5142   1.5754  -3.2787   0.0663  -0.2441   0.0955  -0.3910   0.1294   1.3773   1.1778   0.7090  -3.4459  -0.2791   0.0978
  -2.4120   3.7196   1.5612  -0.3283  -0.5198  -2.5731  -3.1517   3.3417  -2.2317  -1.3994  -4.5603  -1.4792  -1.3995  -2.2449   4.9623

